<?xml version="1.0"?>
<opencv_storage>
<my_svm type_id="opencv-ml-svm">
  <svm_type>C_SVC</svm_type>
  <kernel><type>RBF</type>
    <gamma>8.9999999999999997e-02</gamma></kernel>
  <C>10.</C>
  <term_criteria><epsilon>1.1920928955078125e-07</epsilon>
    <iterations>2147483647</iterations></term_criteria>
  <var_all>324</var_all>
  <var_count>324</var_count>
  <class_count>4</class_count>
  <class_labels type_id="opencv-matrix">
    <rows>1</rows>
    <cols>4</cols>
    <dt>i</dt>
    <data>
      0 1 2 3</data></class_labels>
  <sv_total>89</sv_total>
  <support_vectors>
    <_>
      5.98002691e-03 4.52761597e-04 2.51787645e-03 7.83476353e-05
      5.99687774e-05 0. 2.59028078e-04 1.34715941e-04 5.95696876e-03
      3.03419046e-02 1.19364413e-03 5.76887326e-03 1.55786925e-04
      9.99479525e-05 0. 4.82185092e-03 2.56441534e-03 3.13167796e-02
      2.16439873e-01 6.73793107e-02 1.42665073e-01 1.89477187e-02
      3.39231223e-01 2.11372916e-02 1.15269139e-01 7.84864426e-02
      2.46361405e-01 3.57455939e-01 2.25963578e-01 3.11720431e-01
      3.66676599e-02 3.57455939e-01 6.08211309e-02 3.34638745e-01
      2.79357255e-01 3.57455939e-01 2.62052007e-02 8.37266631e-03
      3.14819650e-03 2.56487001e-05 1.89855800e-03 0. 2.47782166e-03
      1.53042702e-03 1.99762993e-02 6.60586581e-02 2.08522659e-02
      3.76092363e-03 0. 2.44794716e-03 9.46247164e-05 9.12603922e-03
      1.94113646e-02 4.28780355e-02 3.38097900e-01 1.79096967e-01
      1.08821221e-01 6.50190935e-03 1.98101133e-01 4.21182737e-02
      2.31272519e-01 2.24419385e-01 3.38097900e-01 3.38097900e-01
      2.40253642e-01 6.86761662e-02 2.79919681e-04 2.22424909e-01
      4.15393114e-02 3.38097900e-01 3.38097900e-01 3.38097900e-01
      5.71374111e-02 1.22930864e-02 1.48833229e-03 0. 8.18881555e-04
      2.06604353e-04 1.85275376e-02 3.55625898e-02 4.63453010e-02
      2.64642120e-04 0. 0. 0. 1.28705478e-05 1.67516991e-05
      1.25822367e-03 1.63072965e-03 4.04757506e-04 4.09977883e-01
      1.32339016e-01 2.66200658e-02 3.23471351e-04 4.09977883e-01
      1.08718321e-01 4.09977883e-01 4.09977883e-01 4.09977883e-01
      4.30184789e-03 9.77258896e-05 3.80888414e-05 6.86151325e-05
      2.12415069e-01 2.60063708e-02 2.54583031e-01 8.72205421e-02
      6.24788227e-03 7.80901760e-02 2.87348777e-02 4.85258996e-02
      7.32775684e-03 2.73815006e-01 3.21673080e-02 1.79189682e-01
      6.50119111e-02 8.44615623e-02 2.71992177e-01 7.31569901e-02
      8.44872668e-02 1.17871072e-02 2.73815006e-01 5.19866049e-02
      2.73815006e-01 1.79395080e-01 2.73815006e-01 2.93046143e-02
      6.71097962e-03 1.00907926e-02 2.72137509e-03 2.73815006e-01
      2.95856558e-02 2.73815006e-01 1.53364778e-01 5.86772822e-02
      1.97481349e-01 4.20018733e-02 2.09623296e-02 4.41379473e-03
      2.73815006e-01 4.59671915e-02 2.73815006e-01 2.73815006e-01
      2.73815006e-01 2.00513661e-01 6.13411665e-02 3.71272303e-02
      2.60698330e-03 8.21262971e-02 2.07813047e-02 1.47397503e-01
      1.32152408e-01 2.32328594e-01 1.95250824e-01 1.03109911e-01
      9.18799192e-02 9.25424602e-03 2.39837885e-01 4.10256833e-02
      2.39837885e-01 2.39837885e-01 2.05716014e-01 2.39837885e-01
      1.05175108e-01 5.78528643e-02 6.57306891e-03 6.24664687e-02
      1.69980936e-02 2.29462206e-01 2.39837885e-01 2.39837885e-01
      2.39837885e-01 2.39837885e-01 2.39837885e-01 4.29018214e-02
      2.39837885e-01 2.51808651e-02 1.21088132e-01 1.71592981e-01
      2.39837885e-01 1.30090654e-01 7.57347196e-02 1.63749114e-01
      3.10928654e-02 3.06712478e-01 8.83935168e-02 3.06712478e-01
      3.06712478e-01 1.48034990e-01 1.49209471e-03 2.46772403e-03
      3.79378237e-02 1.10472403e-02 2.71241456e-01 1.90875977e-02
      1.17316425e-01 2.57078260e-02 2.02121073e-03 2.81198949e-01
      2.56000072e-01 3.06712478e-01 1.31707922e-01 3.06712478e-01
      4.56269011e-02 1.85580254e-01 1.08389646e-01 2.35949352e-01
      1.50547205e-02 1.72954630e-02 9.51925218e-02 4.59404774e-02
      2.78124899e-01 9.28442087e-03 3.67405973e-02 2.65410822e-03
      8.83931387e-03 4.80452925e-02 5.41563713e-05 2.27922224e-04
      9.61220998e-04 2.09302321e-01 1.27140470e-02 3.71756256e-01
      3.15309733e-01 1.25104338e-01 3.97384465e-01 1.45457059e-01
      4.85111475e-02 6.67362101e-03 1.90823987e-01 2.92795729e-02
      3.97384465e-01 3.97384465e-01 3.97384465e-01 2.06660526e-03 0. 0.
      0. 0. 0. 1.32324605e-03 1.38469692e-03 2.62503861e-03
      4.32035178e-02 9.35778115e-03 1.98706542e-03 1.34601156e-04
      2.43336890e-05 0. 8.68223980e-03 1.69956479e-02 4.06975076e-02
      3.21707934e-01 2.36777872e-01 1.20669365e-01 1.43699488e-02
      9.35114920e-02 2.12863423e-02 2.79870719e-01 3.21707934e-01
      3.21707934e-01 3.21707934e-01 3.21707934e-01 2.98625112e-01
      5.82401678e-02 2.05357462e-01 1.02402605e-02 9.20900106e-02
      2.67745346e-01 3.21707934e-01 3.20025310e-02 1.10723348e-02
      3.03319166e-03 2.76551407e-04 7.45852158e-05 0. 3.12778237e-03
      7.46822264e-03 2.75527649e-02 1.44343479e-02 4.31425031e-03
      2.27084151e-03 1.33154390e-04 7.38168892e-05 0. 1.30652089e-03
      2.22869962e-03 1.48355551e-02 3.79404813e-01 3.79404813e-01
      3.79404813e-01 3.01144987e-01 3.79404813e-01 3.13528161e-03
      1.17164761e-01 2.46473864e-01 3.79404813e-01 6.39963597e-02
      5.62678725e-02 1.57181129e-01 1.03832923e-01 2.56993473e-01
      9.02392028e-04 2.85238275e-05 3.30720592e-04 3.74608785e-02
      2.20677108e-02 5.36260800e-03 3.64445522e-03 0. 1.27624327e-04 0.
      2.68730940e-03 4.00754297e-03 2.32142657e-02 1.65277789e-03
      6.58755365e-04 3.35043820e-04 0. 4.84092234e-05 0. 0. 0.
      1.14896835e-03</_>
    <_>
      0. 0. 0. 0. 0. 0. 0. 0. 0. 0. 0. 0. 0. 0. 0. 0. 0. 0.
      1.73763067e-01 1.74329638e-01 3.81274037e-02 0. 0. 0. 0.
      2.93738511e-03 7.11060762e-02 4.87401068e-01 4.87401068e-01
      1.31327704e-01 0. 0. 0. 1.01047359e-01 4.33465451e-01
      4.87401068e-01 0. 0. 0. 0. 0. 0. 0. 0. 0. 0. 0. 0. 0. 0. 0. 0. 0.
      0. 4.12939221e-01 2.98162758e-01 4.98927832e-02 0. 0. 0.
      9.72827449e-02 2.30951190e-01 4.12939221e-01 4.12939221e-01
      3.26844573e-01 4.17739190e-02 0. 0. 0. 5.49037419e-02
      2.19134986e-01 4.12939221e-01 0. 0. 0. 0. 0. 0. 0. 0. 0. 0. 0. 0.
      0. 0. 0. 0. 0. 0. 5.24896860e-01 2.90112674e-01 1.73294544e-02 0.
      0. 0. 1.24871254e-01 5.24896860e-01 5.24896860e-01 4.21844609e-02
      0. 0. 0. 0. 0. 3.62529494e-02 1.76460117e-01 1.84166074e-01
      7.55586252e-02 5.59968054e-02 5.24643548e-02 2.04948988e-03
      4.42824103e-02 7.86365382e-03 4.00556736e-02 1.89684276e-02
      4.95871678e-02 3.52633625e-01 3.01739305e-01 1.59686461e-01
      4.68460424e-03 8.34887400e-02 1.71327982e-02 1.36528268e-01
      1.90642655e-01 3.52633625e-01 9.59457681e-02 5.18433265e-02
      5.59972450e-02 2.28074449e-03 5.92039563e-02 1.10785440e-02
      6.81376979e-02 3.57650183e-02 7.31903389e-02 3.52633625e-01
      3.38177502e-01 1.88998014e-01 5.31595061e-03 1.11866020e-01
      2.40924396e-02 2.11352676e-01 2.53758162e-01 3.52633625e-01
      3.18542331e-01 1.46234602e-01 6.18641973e-02 5.55815932e-04
      7.95964245e-03 1.91761763e-03 6.80721030e-02 9.52993408e-02
      3.18542331e-01 3.18542331e-01 1.23656139e-01 5.60642630e-02
      1.84584176e-03 9.31453239e-03 5.08016092e-04 7.83465579e-02
      9.97295678e-02 3.18542331e-01 3.18542331e-01 1.83365941e-01
      8.42300579e-02 6.48790505e-04 1.07263541e-02 2.68580439e-03
      8.85412768e-02 1.09118380e-01 3.18542331e-01 3.18542331e-01
      1.36149019e-01 8.05205330e-02 2.57897633e-03 1.24939932e-02
      5.62719535e-04 1.08969465e-01 1.17539071e-01 3.18542331e-01
      3.65261316e-01 1.37712345e-01 1.16085455e-01 1.63633768e-02
      8.84474516e-02 3.75146721e-03 1.82952061e-01 3.05343062e-01
      3.65261316e-01 4.36558276e-02 1.80216525e-02 4.09798957e-02
      7.87542202e-03 4.71445285e-02 1.74483215e-03 5.67107983e-02
      6.75928667e-02 8.12135115e-02 3.65261316e-01 1.80585593e-01
      1.91801906e-01 2.28898395e-02 1.18406497e-01 4.14635893e-03
      2.22213149e-01 3.29733044e-01 3.65261316e-01 6.76001459e-02
      3.44281346e-02 6.89714178e-02 1.10332705e-02 6.30291626e-02
      1.92849850e-03 6.13447390e-02 6.84294924e-02 9.86877158e-02
      1.37762323e-01 1.80929713e-02 6.34550378e-02 3.10499943e-03
      9.69139338e-02 1.91237163e-02 1.40376732e-01 8.17585140e-02
      1.37701795e-01 4.30192322e-01 3.59361321e-01 2.56313145e-01
      7.40378816e-03 1.83531627e-01 4.15048711e-02 3.90164047e-01
      4.05701309e-01 4.30192322e-01 0. 0. 0. 0. 0. 0. 0. 0. 0. 0. 0. 0.
      0. 0. 0. 0. 0. 0. 4.18215513e-01 3.02204192e-01 1.64242163e-01
      1.12233695e-03 2.13587862e-02 5.54617448e-03 1.51006117e-01
      1.51603475e-01 4.18215513e-01 4.18215513e-01 1.67378098e-01
      1.64429754e-01 5.31081762e-03 2.46816669e-02 9.17088706e-04
      2.16027752e-01 1.71081498e-01 4.18215513e-01 0. 0. 0. 0. 0. 0. 0.
      0. 0. 0. 0. 0. 0. 0. 0. 0. 0. 0. 4.32974011e-01 3.01348150e-01
      4.11408961e-01 4.21968251e-02 2.08717674e-01 6.02556206e-03
      3.35476518e-01 3.31692308e-01 4.32974011e-01 1.44205302e-01
      8.53175968e-02 1.51178613e-01 2.03734059e-02 1.11004725e-01
      2.80252867e-03 7.72968754e-02 4.99857962e-02 1.43465400e-01 0. 0.
      0. 0. 0. 0. 0. 0. 0. 0. 0. 0. 0. 0. 0. 0. 0. 0.</_>
    <_>
      8.15819367e-04 0. 3.14021483e-04 7.61055344e-05 2.20908923e-03
      7.48012098e-05 5.17529988e-05 0. 1.57768154e-04 1.09621428e-01
      4.06519622e-02 3.53017151e-02 4.17410955e-03 2.73024086e-02
      2.91724992e-03 2.01836880e-03 1.99077893e-02 7.31996745e-02
      6.41096104e-03 4.28497372e-03 2.77059823e-02 3.32336612e-02
      1.14370100e-01 1.60094928e-02 2.96562840e-03 2.28974368e-05
      9.03992855e-04 3.80881041e-01 3.74620974e-01 3.80881041e-01
      3.80881041e-01 3.80881041e-01 2.35533401e-01 8.94342586e-02
      1.74064606e-01 3.80881041e-01 7.22962916e-02 3.16959769e-02
      2.35948749e-02 1.87337864e-03 4.76413500e-03 6.38742233e-04
      1.12453159e-02 2.76593994e-02 6.17524832e-02 6.56085983e-02
      2.48786863e-02 1.71881747e-02 4.41240752e-03 9.85089783e-03
      4.58828472e-05 2.50772759e-02 4.93992344e-02 7.76731819e-02
      2.97026157e-01 2.97026157e-01 2.97026157e-01 8.91582444e-02
      2.60431409e-01 4.41499949e-02 7.49318972e-02 1.88270032e-01
      2.97026157e-01 2.97026157e-01 2.97026157e-01 2.76664883e-01
      3.25805545e-02 5.38728125e-02 2.11983966e-03 2.56872296e-01
      2.97026157e-01 2.97026157e-01 5.77037260e-02 2.20051818e-02
      1.80705618e-02 1.13697713e-02 4.64045145e-02 1.02817121e-05
      3.63826640e-02 3.91804464e-02 6.04874305e-02 2.94509046e-02
      6.98185200e-03 7.15002324e-03 4.50151134e-03 3.11079714e-02 0.
      2.51531005e-02 2.09956728e-02 3.32211070e-02 3.08412433e-01
      3.00531566e-01 1.86406076e-01 5.90659566e-02 1.55356258e-01
      1.59470271e-02 3.08412433e-01 3.08412433e-01 3.08412433e-01
      2.77679086e-01 5.41189611e-02 4.51700874e-02 2.35850438e-02
      2.59262174e-01 1.05945557e-01 3.08412433e-01 3.08412433e-01
      3.08412433e-01 1.50736957e-03 2.31750403e-03 1.25783598e-02
      1.90985464e-02 1.17161497e-01 2.52897702e-02 4.87204222e-03
      4.42543242e-05 1.92854306e-04 1.79910198e-01 1.20399714e-01
      2.91550517e-01 2.26593882e-01 4.12714005e-01 2.81525224e-01
      1.18555769e-01 4.60615791e-02 1.21717103e-01 4.12061236e-05
      3.31072020e-04 1.31688640e-03 3.37679335e-03 9.74087045e-02
      2.40816064e-02 1.11576943e-02 3.53106821e-04 9.24773394e-06
      3.99588645e-02 1.65623538e-02 4.71269153e-02 4.44519371e-02
      4.12714005e-01 3.36670369e-01 4.12714005e-01 1.89651266e-01
      1.04451679e-01 1.78528354e-01 1.69973776e-01 2.07304463e-01
      7.15519935e-02 2.41366029e-01 7.55876452e-02 9.53763723e-02
      8.56111944e-02 1.39376715e-01 2.41366029e-01 2.41366029e-01
      1.79576889e-01 1.80244595e-02 9.01753083e-02 7.36902840e-03
      1.56337231e-01 2.13243291e-01 2.41366029e-01 9.66882408e-02
      4.05582003e-02 5.88861629e-02 1.97108146e-02 2.41366029e-01
      1.03628509e-01 2.41366029e-01 2.27184698e-01 1.68829203e-01
      2.26570740e-01 1.69245750e-01 1.31653607e-01 8.41322914e-03
      9.36625749e-02 1.77271590e-02 2.41366029e-01 2.41366029e-01
      2.41366029e-01 2.17456311e-01 1.39042541e-01 9.20735300e-02
      2.51764283e-02 8.19725841e-02 3.67874950e-02 2.43749142e-01
      2.43749142e-01 2.43749142e-01 1.08269550e-01 3.19921412e-02
      4.37619537e-02 3.25985365e-02 2.43749142e-01 1.75813645e-01
      2.43749142e-01 2.07114354e-01 1.91341594e-01 2.43749142e-01
      2.24610656e-01 1.82222039e-01 2.91185733e-02 8.08300301e-02
      3.23000774e-02 1.26985773e-01 1.90578014e-01 2.43749142e-01
      1.57617882e-01 1.52834430e-01 2.43749142e-01 1.14877708e-01
      2.43749142e-01 1.15379237e-01 1.07233882e-01 6.76239133e-02
      1.32615596e-01 1.14297172e-05 0. 0. 4.79419941e-05 7.59611353e-02
      1.39842024e-02 1.80298612e-02 9.01581079e-04 1.14297172e-05
      2.40629852e-01 1.28390279e-03 3.43118911e-03 3.42314295e-03
      4.38264579e-01 3.74668896e-01 4.38264579e-01 4.38264579e-01
      4.38264579e-01 9.26733662e-07 0. 0. 0. 4.29094653e-05
      2.58282398e-05 0. 0. 9.26733662e-07 4.73091640e-02 1.41769087e-05
      2.57919964e-05 1.44150808e-05 1.65863277e-03 1.05490896e-03
      4.92208451e-02 9.64115039e-02 9.36094522e-02 3.05283695e-01
      3.95218953e-02 3.78595069e-02 1.76838564e-03 2.08529800e-01
      7.25349933e-02 3.05283695e-01 3.05283695e-01 3.05283695e-01
      3.05283695e-01 3.05283695e-01 2.45815709e-01 6.09891023e-03
      4.65568081e-02 2.05115844e-02 3.05283695e-01 3.05283695e-01
      3.05283695e-01 6.99229166e-02 6.56613149e-03 7.06924498e-03
      5.05139687e-05 4.27992636e-04 3.40720115e-04 1.97696760e-02
      4.27256078e-02 8.74781460e-02 1.03902876e-01 2.92237941e-02
      2.51733121e-02 1.88834441e-04 2.27955845e-03 1.09610765e-03
      1.34698702e-02 4.58819792e-02 1.18081532e-01 2.97317654e-01
      2.97317654e-01 2.79807478e-01 2.07101870e-02 4.75637913e-02
      1.14613464e-02 1.22934453e-01 2.97317654e-01 2.97317654e-01
      2.97317654e-01 2.97317654e-01 2.97317654e-01 1.28853634e-01
      2.97317654e-01 9.85900965e-03 2.00730003e-02 1.66989446e-01
      2.97317654e-01 9.93015766e-02 2.52450984e-02 1.52886435e-02
      2.62162474e-04 1.77468092e-03 6.68865687e-04 1.20780338e-02
      7.39906952e-02 1.28593221e-01 9.53606591e-02 5.50366566e-02
      4.98733483e-02 1.84033031e-03 7.11468689e-04 1.76731657e-04
      3.46290483e-03 4.47114445e-02 1.03514284e-01</_>
    <_>
      0. 0. 0. 0. 0. 0. 0. 0. 0. 0. 0. 0. 0. 0. 0. 0. 0. 0.
      3.46487135e-01 3.46487135e-01 3.18972051e-01 1.40406743e-01
      8.15092176e-02 1.61015987e-03 1.41762616e-02 8.82751569e-02
      3.46487135e-01 3.46487135e-01 3.46487135e-01 2.00333223e-01
      5.59350103e-02 1.39907807e-01 4.18934599e-02 1.15081780e-01
      2.49571577e-01 3.46487135e-01 0. 0. 0. 0. 0. 0. 0. 0. 0. 0. 0. 0.
      0. 0. 0. 0. 0. 0. 3.37576091e-01 2.29685396e-01 1.14676937e-01
      2.42371354e-02 1.07695520e-01 5.11786491e-02 3.37576091e-01
      3.37576091e-01 3.37576091e-01 3.37576091e-01 4.11887057e-02
      2.29299888e-02 1.38470542e-03 2.81830188e-02 3.51622030e-02
      3.37576091e-01 3.37576091e-01 3.37576091e-01 0. 0. 0. 0. 0. 0. 0.
      0. 0. 0. 0. 0. 0. 0. 0. 0. 0. 0. 2.40016654e-01 6.28678873e-03
      5.92879602e-04 1.61119353e-03 2.35104173e-01 2.19813541e-01
      6.22791588e-01 6.22791588e-01 2.38329068e-01 0. 0. 0. 0.
      1.91271592e-05 0. 0. 0. 0. 2.50905663e-01 2.50905663e-01
      2.31148034e-01 1.34026021e-01 2.50905663e-01 2.96638962e-02
      9.94196720e-03 3.10158506e-02 1.93124637e-01 2.50905663e-01
      2.04966456e-01 1.15999319e-01 3.15163061e-02 9.63543877e-02
      1.85934603e-02 5.22283390e-02 1.08428635e-01 2.50905663e-01
      1.76616937e-01 1.42441705e-01 1.44158870e-01 1.00525886e-01
      2.50905663e-01 1.69723034e-01 2.07947016e-01 1.38872504e-01
      1.77304715e-01 2.49073356e-01 1.65481120e-01 8.81710798e-02
      2.28898488e-02 1.59378380e-01 2.58198082e-02 9.96974409e-02
      1.63534582e-01 2.50905663e-01 2.47215062e-01 8.04176629e-02
      4.06277291e-02 1.09915268e-02 9.14044678e-02 3.17729712e-02
      2.63034075e-01 2.27411672e-01 2.63034075e-01 1.23232387e-01
      1.43021112e-02 1.17587224e-02 5.12401108e-03 2.63034075e-01
      4.59324382e-02 2.63034075e-01 2.22436219e-01 1.37488976e-01
      2.40761757e-01 1.76238030e-01 1.21540517e-01 2.23026611e-02
      1.90537736e-01 2.49152482e-02 1.83398739e-01 1.45332292e-01
      2.22639412e-01 1.61538869e-01 1.51088774e-01 2.02974841e-01
      6.82348311e-02 2.63034075e-01 4.94746156e-02 2.63034075e-01
      1.08029209e-01 1.06434256e-01 2.21895352e-02 2.57573114e-03
      7.63630960e-03 1.00386916e-02 4.53926057e-01 9.19725001e-02
      4.53926057e-01 2.26373956e-01 2.18126103e-02 0. 0. 0. 0.
      7.75914668e-06 0. 0. 0. 0. 8.80728886e-02 1.16467252e-01
      3.20449293e-01 1.71413049e-01 4.53926057e-01 9.13488790e-02
      3.76771748e-01 1.07691593e-01 3.45056653e-02 0. 0. 0. 0.
      7.02018133e-06 0. 0. 0. 0. 2.82563835e-01 9.85559896e-02
      2.46741250e-02 1.01715354e-02 2.82563835e-01 2.14111760e-01
      2.82563835e-01 2.82563835e-01 2.82563835e-01 2.82563835e-01
      2.77900398e-01 1.04465440e-01 2.34884787e-02 1.79411680e-01
      3.87733057e-02 2.03773022e-01 2.82563835e-01 2.82563835e-01
      1.29164129e-01 3.13739255e-02 9.69705917e-03 3.22867098e-04
      9.87704098e-03 1.38570741e-02 8.28312635e-02 7.57048875e-02
      1.50673181e-01 1.80788100e-01 8.69367421e-02 3.32275331e-02
      5.01600467e-03 3.28011476e-02 6.11346075e-03 4.15268354e-02
      6.64906129e-02 1.90481558e-01 3.00478369e-01 3.00478369e-01
      2.60914415e-01 3.98567207e-02 2.06647605e-01 1.86509546e-02
      8.91518220e-02 1.67521521e-01 3.00478369e-01 3.00478369e-01
      3.00478369e-01 3.00478369e-01 1.00082681e-01 3.00478369e-01
      1.26297465e-02 3.65783945e-02 2.29351241e-02 2.93451160e-01
      1.91087216e-01 8.19942057e-02 4.17707525e-02 5.84283564e-03
      2.74378192e-02 3.95116722e-03 2.24329531e-02 4.66296114e-02
      1.76111385e-01 1.50655225e-01 6.76353648e-02 4.58885953e-02
      4.41482197e-03 1.55038498e-02 2.90495344e-04 4.06830665e-03
      7.48107489e-03 9.44375321e-02 4.47206199e-01 4.26173180e-01
      4.63183016e-01 3.38115275e-01 4.63183016e-01 2.08654702e-02
      3.35379504e-02 2.88299471e-03 1.61285788e-01 0. 0. 0. 0. 0. 0. 0.
      0. 0. 1.40489012e-01 9.15861428e-02 9.31090564e-02 1.40295206e-02
      5.59774339e-02 2.19821217e-04 7.05504717e-05 1.15835255e-05
      5.14890254e-02 0. 0. 0. 0. 0. 0. 0. 0. 0.</_>
    <_>
      4.50944572e-06 0. 0. 0. 0. 0. 0. 0. 4.50944572e-06 1.03274842e-05
      0. 0. 0. 0. 0. 0. 0. 1.03274842e-05 3.13985258e-01 1.72732666e-01
      3.13985258e-01 2.70676047e-01 1.74941525e-01 1.22941025e-02
      1.85687039e-02 8.81011635e-02 3.13985258e-01 3.13985258e-01
      2.69250393e-01 3.13985258e-01 1.57951355e-01 3.13985258e-01
      2.74870358e-02 1.26072109e-01 2.25160062e-01 3.13985258e-01
      1.43011927e-03 0. 0. 0. 2.80694735e-06 6.61284503e-07 0. 0.
      1.02940877e-03 6.14909083e-03 0. 0. 0. 1.09471068e-04
      2.57901211e-05 0. 0. 5.30752307e-03 3.20656031e-01 2.35046074e-01
      1.44521683e-01 7.75434151e-02 2.96432734e-01 4.69967648e-02
      1.16149105e-01 1.64727181e-01 3.20656031e-01 3.20656031e-01
      3.20656031e-01 7.53058195e-02 6.01961464e-02 2.62215823e-01
      1.60771966e-01 3.20656031e-01 2.51103699e-01 3.20656031e-01
      7.84482248e-03 0. 0. 0. 2.52679456e-04 5.95283673e-05 0. 0.
      7.68882735e-03 0. 0. 0. 0. 0. 0. 0. 0. 0. 3.90092939e-01
      3.03499043e-01 2.32720887e-03 3.96834034e-03 3.90092939e-01
      3.54745835e-01 3.90092939e-01 3.90092939e-01 3.90092939e-01
      1.21140119e-03 5.25685864e-05 1.69883224e-05 0. 1.04832567e-01
      2.20375601e-02 6.66345581e-02 3.31235379e-02 1.13062887e-02
      1.59887403e-01 8.46329182e-02 2.39967510e-01 1.59049004e-01
      2.60738105e-01 5.14789820e-02 3.84413749e-02 2.83361319e-02
      1.13659836e-01 2.60738105e-01 1.41268387e-01 2.35536993e-01
      8.56744498e-02 2.60738105e-01 2.85294410e-02 6.19041733e-02
      7.25896284e-02 2.42964238e-01 8.08837488e-02 2.70473044e-02
      1.15981683e-01 6.95921332e-02 2.60738105e-01 1.70768321e-01
      2.60738105e-01 4.93499860e-02 8.68727118e-02 2.26993933e-01
      5.58236800e-02 1.54601157e-01 5.67344576e-02 2.60738105e-01
      1.10688880e-01 2.60738105e-01 1.13319248e-01 2.54472762e-01
      2.76650012e-01 1.01233609e-01 8.30141082e-02 3.47719491e-02
      1.83282003e-01 2.75372230e-02 6.29177243e-02 9.07754824e-02
      2.18516603e-01 2.82434314e-01 1.10440850e-01 3.81989293e-02
      2.86184046e-02 2.82434314e-01 7.79416412e-02 2.82434314e-01
      1.45723522e-01 2.82434314e-01 1.90342590e-01 5.10850772e-02
      8.78279507e-02 4.03406732e-02 1.64721340e-01 5.13978153e-02
      9.37603861e-02 7.16062486e-02 2.10501865e-01 2.75913388e-01
      1.15403041e-01 2.21576363e-01 5.43759130e-02 2.82434314e-01
      3.80406529e-02 9.78996381e-02 4.71104495e-02 2.76456773e-01
      1.53000921e-01 5.54203093e-02 1.13737313e-02 5.40384324e-03
      4.38050658e-01 1.17539264e-01 4.38050658e-01 1.60315037e-01
      2.37282008e-01 4.92788036e-04 3.82038997e-05 1.31127799e-05
      1.37296112e-04 1.51382163e-01 1.31407902e-02 2.91421320e-02
      1.16289640e-02 3.97208240e-03 2.01213509e-01 1.16851427e-01
      2.65535533e-01 5.90391532e-02 4.38050658e-01 4.57911715e-02
      1.28782898e-01 3.97808515e-02 1.99062333e-01 5.35016647e-03
      5.12431469e-03 1.43106841e-02 4.92712576e-03 2.91385680e-01
      6.81614596e-03 1.05004841e-02 3.07479827e-03 5.41393738e-03
      2.42441520e-01 4.26077424e-03 1.13552660e-02 4.74568503e-03
      3.05589408e-01 2.31908932e-01 3.05589408e-01 1.07944719e-01
      2.75860846e-01 3.05589408e-01 4.82641682e-02 1.81497470e-01
      8.55772644e-02 3.05589408e-01 2.00219795e-01 3.05589408e-01
      2.16562375e-01 3.05589408e-01 8.66189897e-02 1.32844865e-03
      2.10109912e-03 1.59974035e-04 1.20895458e-02 2.19503026e-02
      7.70525113e-02 1.75296348e-02 8.81490335e-02 1.93388626e-01
      1.80534292e-02 5.85226752e-02 1.96214486e-02 2.53929999e-02
      2.09882334e-02 6.10685199e-02 1.74267627e-02 1.94346234e-01
      3.14241886e-01 1.07382908e-01 2.16925204e-01 1.12921864e-01
      2.81598479e-01 1.33538276e-01 1.81425527e-01 1.07036784e-01
      3.14241886e-01 3.14241886e-01 3.14241886e-01 3.14241886e-01
      9.19957906e-02 3.14241886e-01 6.50191307e-02 5.05909845e-02
      2.87254732e-02 3.14241886e-01 1.06532685e-01 2.52886321e-02
      5.48173301e-02 2.19982062e-02 4.46879677e-02 2.13295240e-02
      1.93662830e-02 8.99144076e-03 1.15404263e-01 1.47435233e-01
      6.53899387e-02 4.27651554e-02 3.91505798e-03 3.46484818e-02
      1.51399048e-02 1.48220295e-02 8.96247290e-03 1.24165848e-01
      4.10163879e-01 4.10163879e-01 4.10163879e-01 1.23239204e-01
      4.10163879e-01 2.21559219e-02 1.75104216e-02 1.02922488e-02
      4.10163879e-01 2.19489597e-02 1.88514628e-02 4.91976887e-02
      1.25777405e-02 2.93774992e-01 1.63254212e-04 2.81902558e-05
      9.42068800e-06 1.86280180e-02 1.52990416e-01 8.10914561e-02
      7.59926960e-02 4.64884844e-03 2.52551548e-02 4.52045305e-03
      4.86456184e-03 3.14376014e-03 1.09553203e-01 4.27299133e-03
      2.76298216e-03 6.18012715e-03 7.75270222e-04 4.80239326e-03
      1.32368268e-05 0. 0. 3.59887769e-03</_>
    <_>
      0. 0. 0. 0. 0. 0. 0. 0. 0. 0. 0. 0. 0. 0. 0. 0. 0. 0.
      1.43400088e-01 9.02403146e-02 1.11320511e-01 8.76937136e-02
      3.80216688e-01 9.35247093e-02 1.06207028e-01 7.02099949e-02
      1.22748964e-01 3.22409183e-01 1.82334125e-01 2.15929419e-01
      1.76955700e-01 3.80216688e-01 3.77716243e-01 3.80216688e-01
      1.92656159e-01 2.80671299e-01 0. 0. 0. 0. 0. 0. 0. 0. 0. 0. 0. 0.
      0. 0. 0. 0. 0. 0. 2.50157624e-01 1.93565473e-01 2.89176047e-01
      2.25724995e-01 2.89245993e-01 2.89245993e-01 2.27040738e-01
      1.23619132e-01 1.77763581e-01 2.52261758e-01 1.77978367e-01
      2.89245993e-01 2.59745896e-01 2.89245993e-01 2.89245993e-01
      1.54752880e-01 1.29455537e-01 2.05562860e-01 0. 0. 0. 0. 0. 0. 0.
      0. 0. 0. 0. 0. 0. 0. 0. 0. 0. 0. 2.25479543e-01 3.46550122e-02
      3.17822039e-01 3.18669826e-01 3.18669826e-01 1.89821288e-01
      3.09663236e-01 1.38910383e-01 3.16417038e-01 1.42263055e-01
      7.54477410e-03 2.00260758e-01 1.95074171e-01 3.18669826e-01
      8.22031796e-02 3.18669826e-01 1.18091211e-01 2.58969367e-01
      2.55580079e-02 1.89264193e-02 2.45038010e-02 2.24615335e-02
      3.43184739e-01 6.15361258e-02 5.43482266e-02 1.73496138e-02
      2.12797783e-02 7.00371340e-02 4.34857570e-02 6.43583760e-02
      6.50472939e-02 3.43184739e-01 1.96168259e-01 2.12759227e-01
      6.16311692e-02 5.90196513e-02 4.36881138e-03 2.84426054e-03
      4.21349937e-03 5.39840618e-03 3.43184739e-01 1.00286700e-01
      1.40954733e-01 4.20205854e-02 7.99096655e-03 2.35781640e-01
      8.13153163e-02 8.11428055e-02 3.93803157e-02 3.43184739e-01
      2.54182935e-01 3.43184739e-01 2.61045754e-01 2.38660023e-01
      5.32343425e-02 4.57846783e-02 9.94829088e-02 1.27369359e-01
      2.53420562e-01 1.23665825e-01 9.03593972e-02 3.27449702e-02
      3.82085629e-02 6.15462288e-02 5.48560359e-02 1.29368290e-01
      1.70242369e-01 2.53420562e-01 1.26772210e-01 5.36646545e-02
      3.04485895e-02 4.73359674e-02 2.53420562e-01 1.66168302e-01
      1.98014975e-01 1.32591844e-01 2.53420562e-01 1.08902544e-01
      2.30039805e-01 1.47105843e-01 2.53420562e-01 2.53420562e-01
      1.90373972e-01 2.53420562e-01 1.84469193e-01 2.53420562e-01
      7.56818652e-02 1.53885499e-01 1.31509557e-01 2.53420562e-01
      6.22089095e-02 4.75241728e-02 2.29441434e-01 2.01146126e-01
      2.92181313e-01 5.82588762e-02 8.62673149e-02 3.44740599e-02
      6.94194064e-02 2.62429677e-02 1.43476585e-02 1.39445081e-01
      1.02933630e-01 2.92181313e-01 2.35745106e-02 8.71548802e-02
      2.77388766e-02 4.77902517e-02 2.92181313e-01 2.50699550e-01
      2.92181313e-01 2.42117018e-01 2.92181313e-01 2.57526953e-02
      8.40767995e-02 6.86382353e-02 2.92181313e-01 7.10108876e-02
      7.64718205e-02 2.67819971e-01 1.48493260e-01 2.92181313e-01
      8.99373740e-03 2.60296371e-02 7.30765983e-03 4.33748849e-02
      8.19083489e-03 7.45529469e-05 1.29491833e-04 3.10147909e-04
      1.91640645e-01 1.14553720e-01 2.75730759e-01 1.17115006e-01
      2.50298269e-02 3.72846931e-01 2.46084705e-01 1.33465230e-01
      1.87320840e-02 3.72846931e-01 2.66474485e-01 3.72846931e-01
      3.72846931e-01 3.72846931e-01 9.60753881e-04 0. 0. 0. 0.
      7.18022857e-05 2.50591361e-03 4.38531442e-03 2.24079797e-03
      6.32002875e-02 1.64942853e-02 1.58378039e-03 0. 0. 2.47318967e-04
      1.15136458e-02 4.02252264e-02 7.16508254e-02 3.11729223e-01
      3.11729223e-01 2.18505979e-01 4.95485105e-02 1.45111606e-01
      4.58391979e-02 2.76837438e-01 2.68092752e-01 3.11729223e-01
      3.11729223e-01 3.02402616e-01 2.61741549e-01 6.80945069e-02
      1.28443792e-01 1.43588176e-02 2.06843361e-01 2.42744669e-01
      3.11729223e-01 4.15403880e-02 1.71668809e-02 2.69714021e-03 0. 0.
      3.88528206e-05 3.15472949e-03 1.27286958e-02 3.57104018e-02
      3.54284048e-02 1.00526642e-02 2.85319914e-03 0. 0. 0.
      3.16193490e-03 8.35899729e-03 3.48358862e-02 3.59353274e-01
      3.59353274e-01 3.59353274e-01 2.01789364e-01 3.06635678e-01
      6.01273589e-03 1.26379684e-01 1.67418405e-01 3.59353274e-01
      2.01153591e-01 1.66948080e-01 3.35010886e-01 1.62428886e-01
      2.71926254e-01 1.22889807e-03 1.71124819e-04 1.81734795e-04
      1.15252465e-01 5.68141863e-02 1.64059922e-02 5.78697817e-03 0. 0.
      0. 2.23099324e-03 7.21875438e-03 5.64032495e-02 8.46091192e-03
      4.94758040e-03 2.15389556e-03 0. 0. 0. 0. 0. 6.42117020e-03</_>
    <_>
      0. 0. 0. 0. 0. 0. 0. 0. 0. 0. 0. 0. 0. 0. 0. 0. 0. 0.
      4.71691880e-03 1.62208956e-02 3.19156721e-02 4.72694673e-02
      5.14439195e-02 8.38352134e-04 2.95302481e-03 1.74790749e-03
      2.25813268e-03 4.01008338e-01 4.01008338e-01 4.01008338e-01
      4.01008338e-01 4.01008338e-01 1.02297679e-01 7.26119876e-02
      9.59584564e-02 4.01008338e-01 0. 0. 0. 0. 0. 0. 0. 0. 0. 0. 0. 0.
      0. 0. 0. 0. 0. 0. 3.26529413e-01 3.26529413e-01 3.26529413e-01
      3.26529413e-01 3.26529413e-01 1.01787023e-01 6.33517206e-02
      6.91153109e-02 3.26529413e-01 3.26529413e-01 2.79477760e-02
      3.98255624e-02 6.99181110e-02 3.26529413e-01 9.02568251e-02
      3.52471508e-02 3.67305093e-02 3.26529413e-01 0. 0. 0. 0. 0. 0. 0.
      0. 0. 0. 0. 0. 0. 0. 0. 0. 0. 0. 4.53115761e-01 2.40239706e-02
      3.06440890e-02 4.31728289e-02 4.53115761e-01 1.70981288e-01
      1.07505042e-02 6.53827712e-02 4.53115761e-01 2.76508600e-01
      6.15998695e-04 2.48465547e-03 4.48763883e-03 4.11800176e-01
      2.87502166e-02 2.28041015e-03 9.34039522e-03 3.09103698e-01
      2.63260375e-03 5.85131161e-03 2.22370625e-02 2.33062562e-02
      9.76919383e-02 4.26800270e-03 5.72616700e-03 1.97515357e-03
      9.62797203e-04 1.67160451e-01 2.68257171e-01 3.80483955e-01
      2.95696884e-01 3.80483955e-01 7.18304366e-02 1.30753934e-01
      4.31539044e-02 1.04448959e-01 6.87440066e-03 4.85044159e-03
      2.30759569e-02 1.47152115e-02 1.58777952e-01 1.29861124e-02
      1.29337749e-02 7.45964982e-03 2.87205260e-03 1.54588655e-01
      1.70031667e-01 3.80483955e-01 1.66210860e-01 3.80483955e-01
      1.42296255e-01 2.02471852e-01 7.47821927e-02 1.01877429e-01
      2.54966170e-01 2.03434065e-01 2.76205122e-01 2.06910148e-01
      2.76205122e-01 6.74215183e-02 9.62586477e-02 3.82446349e-02
      2.09155098e-01 2.31164262e-01 1.18405838e-02 1.67107172e-02
      2.83776019e-02 2.10736126e-01 3.59860249e-02 1.25898914e-02
      1.24406405e-02 2.59200215e-01 2.38440111e-01 1.80422634e-01
      2.76205122e-01 1.21360041e-01 2.76205122e-01 1.18551403e-01
      1.53420031e-01 6.13271371e-02 2.03479633e-01 2.21460789e-01
      5.65643832e-02 2.79426966e-02 3.68886851e-02 1.62967771e-01
      5.61621971e-02 2.38740593e-02 2.31633205e-02 2.09515870e-01
      2.89144158e-01 1.15831634e-02 5.12761064e-02 7.53786340e-02
      3.51412147e-01 3.92248631e-02 2.35587079e-03 1.17307836e-02
      3.31655502e-01 9.26741362e-02 9.95026343e-03 5.29922657e-02
      7.52512589e-02 3.51412147e-01 8.34134780e-03 4.99730289e-04
      1.67582615e-03 9.67260450e-02 2.92521536e-01 5.77793531e-02
      1.20325066e-01 1.48736641e-01 3.51412147e-01 5.44426925e-02
      4.99730289e-04 1.88041534e-02 2.85588026e-01 1.05563506e-01
      4.89474013e-02 1.37002841e-01 1.32832989e-01 3.51412147e-01
      1.21333534e-02 1.06003390e-04 5.21214446e-03 1.08158991e-01
      1.70013141e-02 6.55363034e-03 1.90148707e-02 3.05038271e-03
      1.79690093e-01 2.23295670e-02 2.20909286e-02 1.78799257e-02
      8.25557671e-03 3.95308465e-01 3.07133943e-01 3.95308465e-01
      9.78648514e-02 3.95308465e-01 3.09203237e-01 3.18164021e-01
      1.74729615e-01 3.95308465e-01 0. 0. 0. 0. 0. 0. 0. 0. 0.
      4.58770394e-02 1.87658072e-02 8.95572640e-03 7.31073692e-03
      1.75271053e-02 1.91909820e-02 1.25569655e-02 3.57889826e-03
      4.35766615e-02 3.10196370e-01 3.10196370e-01 2.60655701e-01
      1.14729442e-01 3.10196370e-01 2.32199147e-01 2.15032279e-01
      1.16544686e-01 3.10196370e-01 3.10196370e-01 1.86279520e-01
      9.00524557e-02 1.19636059e-01 3.10196370e-01 1.81228727e-01
      7.72612095e-02 6.93562627e-02 3.10196370e-01 7.14847147e-02
      2.90233959e-02 1.45630622e-02 1.26212314e-02 2.42422838e-02
      2.30829660e-02 1.78444982e-02 6.70003006e-03 6.65834993e-02
      8.25444311e-02 1.88176576e-02 1.13470983e-02 1.63389742e-02
      4.07967530e-02 2.24017482e-02 8.43276642e-03 5.62347984e-03
      7.54110664e-02 3.95932764e-01 1.47709012e-01 1.83746681e-01
      2.88510770e-01 3.95932764e-01 2.04559639e-01 0. 6.90218806e-02
      3.95932764e-01 2.08719924e-01 8.00145343e-02 1.76038727e-01
      1.54380426e-01 3.95932764e-01 3.10623609e-02 0. 2.00386122e-02
      2.18336582e-01 1.11875124e-01 9.45469458e-03 8.39208346e-03
      3.05647217e-02 5.61092347e-02 2.65424009e-02 0. 5.59636718e-03
      1.06413499e-01 1.88190956e-02 1.25127356e-03 1.78013905e-03
      9.29743052e-03 9.39439423e-03 2.93862284e-03 0. 1.62475195e-03
      1.93956830e-02</_>
    <_>
      0. 0. 0. 0. 0. 0. 0. 0. 0. 5.40658133e-04 0. 0. 0. 0. 0. 0. 0.
      5.40658133e-04 0. 0. 0. 1.25925569e-03 1.11284927e-02 0. 0. 0. 0.
      4.07389402e-01 4.07389402e-01 4.07389402e-01 4.07389402e-01
      4.07389402e-01 4.75056673e-04 2.60519120e-03 5.26718039e-04
      4.07389402e-01 1.19969284e-03 0. 0. 0. 0. 0. 0. 0. 1.19969284e-03
      1.82459154e-03 0. 0. 0. 0. 0. 0. 0. 1.82459154e-03 3.50434899e-01
      2.91806549e-01 3.05920810e-01 1.26174375e-01 1.58239871e-01
      1.20271099e-04 8.08699057e-03 8.00857320e-02 3.50434899e-01
      3.50434899e-01 3.50434899e-01 1.66001379e-01 2.42718905e-02
      3.07871774e-02 5.15841646e-04 6.62587732e-02 3.50434899e-01
      3.50434899e-01 2.45799613e-03 0. 0. 0. 0. 0. 0. 0. 2.45799613e-03
      1.72342733e-03 0. 0. 0. 0. 0. 0. 0. 1.72342733e-03 3.50921273e-01
      2.17598706e-01 7.15956911e-02 8.03471170e-03 3.66430655e-02
      9.12603270e-03 2.00113907e-01 3.50921273e-01 3.50921273e-01
      3.50921273e-01 3.53874378e-02 2.74948478e-02 2.61628609e-02
      1.92878187e-01 2.34445408e-02 3.50921273e-01 3.50921273e-01
      3.50921273e-01 0. 0. 0. 6.44929009e-04 1.56240165e-02
      4.46203157e-05 0. 0. 0. 1.88531563e-01 1.24220267e-01
      3.92910898e-01 3.17829907e-01 4.14267838e-01 7.97946826e-02
      2.67272331e-02 9.80742276e-03 1.21480480e-01 0. 0. 0.
      2.98722589e-04 2.43468881e-02 6.88286091e-04 0. 0. 0.
      9.99306962e-02 2.36960761e-02 1.25904590e-01 2.00096205e-01
      4.14267838e-01 2.50772059e-01 3.86481583e-01 1.73713341e-01
      1.20888636e-01 2.58807987e-01 1.54930592e-01 2.12611228e-01
      1.59808904e-01 2.58807987e-01 6.59871399e-02 2.45092325e-02
      4.01511453e-02 1.90218329e-01 2.58807987e-01 2.01217949e-01
      1.06667429e-01 4.43885066e-02 4.15179543e-02 2.77691372e-02
      4.27394062e-02 1.65973142e-01 2.58807987e-01 2.08736211e-01
      4.61780466e-02 7.99242407e-02 1.28197059e-01 2.58807987e-01
      1.55061454e-01 2.08572865e-01 1.63067326e-01 2.31639117e-01
      2.58807987e-01 1.32082045e-01 6.65676519e-02 4.57167774e-02
      4.69026901e-02 5.44284135e-02 1.23357832e-01 2.11364284e-01
      2.58807987e-01 2.59744346e-01 9.85803902e-02 5.42115904e-02
      2.57244445e-02 1.08194992e-01 9.15895589e-03 1.26575753e-01
      2.32506424e-01 2.59744346e-01 1.75776839e-01 2.22807638e-02
      6.51576892e-02 7.58595541e-02 2.59744346e-01 2.23840605e-02
      2.10528806e-01 1.92390561e-01 2.46356592e-01 2.59744346e-01
      2.15738237e-01 1.86436534e-01 5.27219921e-02 1.48015052e-01
      5.38280467e-03 8.78332928e-02 1.37292579e-01 2.59744346e-01
      1.59573480e-01 1.58066571e-01 2.59744346e-01 2.01703146e-01
      2.59744346e-01 1.27781797e-02 6.92656189e-02 5.91947176e-02
      1.17650062e-01 0. 0. 0. 0. 2.21072584e-02 1.64522137e-03 0. 0. 0.
      3.72366995e-01 2.58068391e-03 8.37407075e-03 5.26574254e-02
      4.09628630e-01 4.09628630e-01 4.09628630e-01 4.09628630e-01
      4.09628630e-01 0. 0. 0. 0. 0. 0. 0. 0. 0. 6.40639439e-02
      2.26377983e-06 9.61910337e-06 5.81942368e-06 2.94066593e-03
      2.91556888e-03 4.82799150e-02 4.85844575e-02 7.82223344e-02
      3.38747889e-01 3.08503136e-02 1.22732064e-02 2.95262914e-02
      2.67777354e-01 1.30407378e-01 3.38747889e-01 2.97648340e-01
      3.38747889e-01 3.38747889e-01 2.02948794e-01 6.76624179e-02
      1.28364805e-02 2.23469380e-02 3.49609181e-02 2.12634727e-01
      3.38747889e-01 3.38747889e-01 6.69358894e-02 4.23771655e-03
      1.14608509e-03 1.54343725e-05 6.62112492e-04 5.89680509e-04
      1.46163562e-02 1.63867585e-02 7.20774904e-02 1.10343024e-01
      1.41216600e-02 4.13447339e-03 2.47303815e-05 9.18448932e-05
      4.56318267e-05 1.16805341e-02 1.67189427e-02 1.13942161e-01
      3.06411177e-01 3.06411177e-01 3.06411177e-01 4.36064750e-02
      7.51073137e-02 2.47425458e-04 1.42420188e-01 2.28192702e-01
      3.06411177e-01 3.06411177e-01 3.06411177e-01 3.06411177e-01
      2.09200203e-01 3.06411177e-01 1.10793405e-03 2.79021915e-02
      3.59841958e-02 2.91911542e-01 1.07348494e-01 1.90441310e-02
      1.94145329e-02 6.80194353e-04 6.28535345e-04 9.66442826e-07
      1.85640231e-02 2.58100741e-02 1.13916591e-01 6.06193058e-02
      2.35352758e-02 2.82948520e-02 2.94915214e-03 2.59476132e-03 0.
      5.42424386e-03 6.35228725e-03 5.93244806e-02</_>
    <_>
      6.85380260e-03 1.54139008e-03 5.17934887e-03 5.27447695e-03
      2.47435924e-02 5.39095933e-03 9.48317256e-03 1.56061025e-02
      9.64398310e-03 1.37592450e-01 1.60735622e-02 2.64885202e-02
      3.17044780e-02 1.15912192e-01 2.85043120e-02 5.99888116e-02
      1.31296948e-01 2.19716281e-01 1.38093522e-02 2.45391447e-02
      1.45717338e-01 8.53937715e-02 2.98211932e-01 1.59173161e-02
      2.69855782e-02 3.94180641e-02 1.95772070e-02 3.34732264e-01
      1.99689165e-01 3.34732264e-01 3.34732264e-01 3.34732264e-01
      1.14313677e-01 2.11756840e-01 3.34732264e-01 3.34732264e-01
      1.07917786e-01 6.21683989e-03 7.82927033e-03 1.06768264e-02
      4.37482633e-02 2.52015218e-02 4.12219875e-02 7.10914806e-02
      1.65774271e-01 5.64831644e-02 1.71396378e-02 8.33136030e-03
      2.27618460e-02 2.44450755e-02 1.42503344e-02 3.01658083e-02
      3.18270996e-02 6.86804205e-02 2.79891312e-01 1.21229537e-01
      2.52500892e-01 1.37321770e-01 2.79891312e-01 1.70817912e-01
      2.55606085e-01 2.25002259e-01 2.79891312e-01 2.79891312e-01
      9.92720574e-02 8.82433876e-02 2.17768669e-01 2.79891312e-01
      1.53651118e-01 2.79891312e-01 2.39895672e-01 2.79891312e-01
      7.31098205e-02 2.54840851e-02 1.01484042e-02 2.68207751e-02
      1.63266007e-02 5.08884950e-05 4.64886986e-02 6.66263476e-02
      9.12623778e-02 1.31866010e-02 6.54842937e-04 4.61345235e-06
      5.03646443e-05 3.29246424e-04 2.97781626e-05 2.03867983e-02
      2.55585928e-02 2.29615662e-02 3.36156964e-01 1.07006297e-01
      6.29147217e-02 2.30057374e-01 3.36156964e-01 1.27405390e-01
      3.36156964e-01 3.36156964e-01 3.36156964e-01 8.87129158e-02
      4.09794878e-03 1.02754834e-03 1.43423420e-03 1.80877984e-01
      1.59109101e-01 3.36156964e-01 3.36156964e-01 1.77082106e-01
      1.58174429e-03 9.12773795e-03 6.23004697e-02 3.23836431e-02
      3.35512519e-01 1.50524154e-02 1.49233574e-02 5.13394922e-03
      2.10637576e-03 1.23496376e-01 1.21367171e-01 3.58495831e-01
      1.48794159e-01 3.58495831e-01 6.80623651e-02 1.50563508e-01
      8.96594003e-02 1.49723321e-01 1.57169416e-03 3.53049196e-04
      4.19987319e-03 2.89261085e-03 3.17058563e-01 6.17793165e-02
      5.34553640e-02 1.49940355e-02 1.57321629e-03 1.14394091e-01
      4.10880670e-02 8.70459080e-02 1.87709685e-02 3.58495831e-01
      2.16547057e-01 3.58495831e-01 2.47240826e-01 1.27347335e-01
      2.09507301e-01 1.14909485e-01 2.30805412e-01 7.18119889e-02
      2.41768792e-01 6.89130276e-02 1.68676883e-01 8.95598382e-02
      2.23576367e-01 1.56019002e-01 5.27047552e-02 6.86471611e-02
      8.96948501e-02 2.41768792e-01 6.86521977e-02 2.40899116e-01
      1.57662109e-01 1.92514837e-01 1.81633770e-01 5.27443066e-02
      8.34872797e-02 1.77105572e-02 2.41768792e-01 9.29048657e-02
      2.41768792e-01 2.41768792e-01 1.98901802e-01 1.97984233e-01
      6.05977774e-02 9.34801698e-02 1.19660467e-01 2.30905592e-01
      3.91214639e-02 2.11870909e-01 1.61299855e-01 2.26087183e-01
      1.03719704e-01 3.54086459e-02 6.40977323e-02 7.21855685e-02
      2.83672541e-01 8.47911686e-02 2.83672541e-01 2.83672541e-01
      1.86361313e-01 2.36740168e-02 9.82773211e-03 3.15439589e-02
      1.49600888e-02 2.83672541e-01 1.11498281e-01 2.83672541e-01
      1.52641252e-01 5.08054420e-02 2.05416098e-01 1.50279313e-01
      2.33961955e-01 1.31486371e-01 2.83672541e-01 3.56819779e-02
      1.67727992e-01 1.65253997e-01 2.48113617e-01 5.81144765e-02
      1.07818834e-01 2.01806024e-01 4.71458435e-02 2.83672541e-01
      3.75299938e-02 9.72149670e-02 5.23942225e-02 6.16344884e-02
      7.57413451e-03 9.02112733e-05 2.43873059e-04 1.03718869e-03
      2.69267231e-01 1.08448848e-01 1.32381216e-01 6.60359412e-02
      7.59003544e-03 3.68890882e-01 6.41041845e-02 2.02968437e-02
      5.07803401e-03 3.68890882e-01 3.68890882e-01 3.68890882e-01
      3.68890882e-01 3.68890882e-01 1.24114822e-03 3.91764161e-06
      1.10545034e-05 0. 2.30907626e-03 9.04906949e-04 1.32419737e-02
      8.62373412e-03 1.25488138e-03 1.61720857e-01 1.79202817e-02
      3.65721900e-03 3.31811432e-04 8.79959669e-03 5.41011058e-03
      1.09276891e-01 9.69550833e-02 1.44295439e-01 2.92245299e-01
      8.62941816e-02 5.12450747e-02 1.57288965e-02 2.92245299e-01
      1.27292901e-01 2.92245299e-01 2.92245299e-01 2.92245299e-01
      2.92245299e-01 9.86343250e-02 1.17313907e-01 1.84219316e-01
      2.92245299e-01 7.37481341e-02 2.92245299e-01 2.73960501e-01
      2.92245299e-01 1.48951545e-01 2.41015106e-02 1.03570577e-02
      1.39059476e-03 2.59407777e-02 2.69859005e-03 3.71973254e-02
      3.24967280e-02 1.21216908e-01 8.72412920e-02 1.54906539e-02
      9.33093298e-03 2.33555608e-03 4.04892452e-02 5.19491639e-03
      2.79570632e-02 4.39864434e-02 1.04655199e-01 2.94589758e-01
      2.94589758e-01 2.94589758e-01 2.00370327e-01 2.94589758e-01
      2.70046666e-02 1.16098970e-01 2.94589758e-01 2.94589758e-01
      2.11692229e-01 2.94589758e-01 2.94589758e-01 6.93082362e-02
      2.94589758e-01 4.41975938e-03 2.96492688e-03 6.64008409e-02
      2.15801761e-01 1.06143519e-01 6.47940561e-02 2.51308307e-02
      4.11746837e-03 1.61385667e-02 3.20456107e-03 2.22813115e-02
      7.25618824e-02 1.57552868e-01 5.61853945e-02 7.30420649e-02
      4.25805971e-02 5.20653697e-03 4.17896779e-03 2.16814424e-05
      3.00631218e-04 1.77558120e-02 5.82519285e-02</_>
    <_>
      0. 0. 0. 0. 1.14789174e-04 0. 0. 0. 0. 3.44388746e-02
      2.48305686e-02 9.91004426e-03 1.07950419e-02 2.22739112e-02
      2.24342011e-03 3.73883895e-03 1.37169857e-03 2.29678079e-02
      3.01091038e-02 7.22658262e-02 2.00751916e-01 5.96120544e-02
      4.50267270e-02 9.49647743e-04 1.62622760e-04 1.12206741e-04
      9.09065455e-03 3.73722136e-01 3.73722136e-01 3.73722136e-01
      3.73722136e-01 3.73722136e-01 5.89381419e-02 2.34517187e-01
      2.11253762e-01 3.73722136e-01 2.53437571e-02 1.55250533e-02
      7.18990806e-03 8.08608253e-03 1.52957821e-02 1.95353571e-03
      3.97654949e-03 1.45890936e-03 1.77161247e-02 4.16412344e-03
      1.61026651e-03 1.21482636e-03 1.50841509e-03 2.97864736e-03
      4.14386363e-04 1.15448236e-03 4.23554418e-04 3.22807068e-03
      2.80492514e-01 2.80492514e-01 2.80492514e-01 2.78174549e-01
      2.80492514e-01 4.85038310e-02 2.80492514e-01 2.80492514e-01
      2.80492514e-01 2.80492514e-01 2.47946545e-01 1.54140010e-01
      3.39070149e-02 6.20680787e-02 1.78342033e-02 1.96294293e-01
      2.80492514e-01 2.80492514e-01 7.45251717e-04 0. 0. 0.
      9.35818243e-04 0. 0. 0. 7.45251717e-04 5.21676196e-03 0. 0. 0.
      6.34713797e-03 0. 0. 0. 5.21676196e-03 3.20822060e-01
      3.20822060e-01 1.27192050e-01 8.94767174e-04 1.22045793e-01
      1.27206445e-01 3.20822060e-01 3.20822060e-01 3.20822060e-01
      2.87208349e-01 9.02489498e-02 2.32674857e-03 9.58045770e-04
      3.20822060e-01 1.38241842e-01 2.88425654e-01 1.89775899e-01
      3.20822060e-01 1.08847115e-02 2.95525379e-02 1.30773574e-01
      5.87280989e-02 1.53537497e-01 1.19291749e-02 9.30065755e-03
      3.33848991e-04 3.44107253e-03 2.17955351e-01 2.71350682e-01
      3.16008329e-01 2.21353740e-01 3.16008329e-01 3.90978642e-02
      8.75596926e-02 6.25624508e-02 1.48250282e-01 3.89554934e-03
      9.22964606e-03 7.53311068e-02 4.73762900e-02 3.16008329e-01
      6.02659956e-02 5.10493629e-02 1.00033395e-02 7.37865549e-03
      1.55079097e-01 9.56817791e-02 3.16008329e-01 1.41959846e-01
      3.16008329e-01 2.18307421e-01 3.04225534e-01 9.95656773e-02
      1.70482799e-01 2.32650474e-01 2.15807915e-01 2.32650474e-01
      9.86465886e-02 1.47885174e-01 2.03787349e-02 1.37813434e-01
      1.82850420e-01 2.32650474e-01 2.32650474e-01 1.90325558e-01
      1.07838459e-01 1.11766076e-02 3.09710763e-02 1.97272692e-02
      1.74490944e-01 2.32650474e-01 2.32650474e-01 2.32650474e-01
      1.06002077e-01 1.77409962e-01 4.66277078e-02 2.32650474e-01
      8.88110474e-02 1.93452820e-01 1.16544932e-01 2.32650474e-01
      2.32650474e-01 1.42592907e-01 1.09503411e-01 3.05218343e-02
      7.44074658e-02 5.18367514e-02 1.44683287e-01 1.59076616e-01
      2.32650474e-01 2.60512322e-01 1.21220991e-01 4.92907986e-02
      1.80608183e-02 1.34307310e-01 1.39391497e-01 2.60512322e-01
      2.09693193e-01 2.60512322e-01 6.69913068e-02 2.42914297e-02
      3.02148657e-03 1.04927085e-02 2.09375456e-01 1.56790018e-01
      2.02471733e-01 7.53911585e-02 8.78996029e-02 2.36179218e-01
      1.20458551e-01 1.81143895e-01 1.07692502e-01 2.60512322e-01
      2.30085179e-01 2.60512322e-01 1.48988143e-01 2.60512322e-01
      4.03409414e-02 3.40035371e-02 9.66747701e-02 7.33622164e-02
      2.60512322e-01 2.05299050e-01 2.04994783e-01 3.89967971e-02
      4.87370491e-02 8.91549420e-03 5.30765508e-04 4.41745995e-03
      5.41510154e-03 3.19638163e-01 1.02759309e-01 1.23903915e-01
      5.28544150e-02 3.98493856e-02 3.19638163e-01 2.69458126e-02
      5.67228422e-02 2.70550642e-02 3.19638163e-01 3.19638163e-01
      3.19638163e-01 3.19638163e-01 3.19638163e-01 6.29702443e-03
      1.90524806e-05 2.06858167e-05 0. 2.84715146e-02 2.36376319e-02
      5.01405187e-02 2.90194061e-02 2.44747475e-02 2.23122999e-01
      1.49517972e-02 6.23978069e-03 0. 5.20853847e-02 4.82762381e-02
      2.06014276e-01 2.03628197e-01 3.19638163e-01 2.56643027e-01
      7.00038746e-02 1.09609224e-01 2.32389513e-02 2.56643027e-01
      1.36436939e-01 2.56643027e-01 2.53481328e-01 2.56643027e-01
      2.56643027e-01 1.93689391e-01 2.05021709e-01 6.15218207e-02
      1.83793426e-01 1.03341796e-01 1.67999581e-01 1.36301160e-01
      2.56643027e-01 2.49583855e-01 5.03698774e-02 5.84705845e-02
      6.41331263e-03 4.48183306e-02 2.34822743e-02 1.14362620e-01
      1.18333437e-01 2.56643027e-01 2.51044750e-01 7.87396282e-02
      8.35986137e-02 1.99343357e-02 7.63260946e-02 4.78543676e-02
      7.97825232e-02 8.10565427e-02 2.56643027e-01 2.96255797e-01
      2.60074258e-01 2.96255797e-01 1.49276212e-01 2.96255797e-01
      1.39653385e-01 1.03875451e-01 7.22599626e-02 2.96255797e-01
      1.71693087e-01 1.18742272e-01 2.85483181e-01 1.41875520e-01
      2.96255797e-01 7.28735030e-02 5.43060079e-02 5.23711275e-03
      1.27315193e-01 2.96255797e-01 9.76226553e-02 1.16326846e-01
      3.64608914e-02 6.45250082e-02 2.36515831e-02 3.05214953e-02
      5.17083742e-02 2.96255797e-01 1.35230973e-01 6.91505671e-02
      1.10177912e-01 4.88293879e-02 8.04775283e-02 5.11746795e-04
      1.98382928e-04 2.27037890e-04 1.03620969e-01</_>
    <_>
      0. 0. 0. 0. 0. 0. 0. 0. 0. 0. 0. 0. 0. 0. 0. 0. 0. 0.
      2.57156551e-01 2.27294892e-01 2.79013842e-01 1.68348417e-01
      1.23053052e-01 1.17796648e-03 0. 3.58471414e-04 1.04779013e-01
      3.94196421e-01 3.94196421e-01 3.94196421e-01 1.97112054e-01
      1.82251126e-01 5.37099764e-02 7.89245889e-02 2.07874119e-01
      3.94196421e-01 7.61969659e-07 0. 0. 0. 0. 0. 0. 0. 7.61969659e-07
      5.33378716e-06 0. 0. 0. 0. 0. 0. 0. 5.33378716e-06 3.02329451e-01
      3.02329451e-01 3.02329451e-01 4.40975092e-02 1.04728058e-01
      7.99500346e-02 5.81373796e-02 1.69761360e-01 3.02329451e-01
      3.02329451e-01 3.02329451e-01 3.02329451e-01 2.79142298e-02
      1.37276620e-01 1.41641513e-01 3.02329451e-01 2.88377255e-01
      3.02329451e-01 6.98151553e-06 0. 0. 0. 0. 0. 0. 0. 6.98151553e-06
      0. 0. 0. 0. 0. 0. 0. 0. 0. 3.84593695e-01 2.26515442e-01
      1.99673653e-01 1.17969755e-02 3.36883634e-01 3.80776107e-01
      3.84593695e-01 3.84593695e-01 3.84593695e-01 6.63907640e-03
      4.09088061e-05 1.04156197e-05 1.13125483e-04 7.03671426e-02
      6.75007105e-02 2.03139782e-01 6.19914681e-02 6.99802116e-03
      7.07118735e-02 8.09100047e-02 2.36034110e-01 1.79793403e-01
      1.52817279e-01 9.54776630e-03 4.45304764e-03 3.45295109e-03
      3.21309157e-02 2.44708523e-01 2.44708523e-01 2.44708523e-01
      1.98026791e-01 1.75286740e-01 1.98596418e-02 2.05897782e-02
      4.96224165e-02 2.15867788e-01 1.23909645e-01 5.95456064e-02
      2.44708523e-01 2.34789267e-01 2.44708523e-01 4.56728935e-02
      4.56532948e-02 5.01253307e-02 1.29383072e-01 2.44708523e-01
      1.97872385e-01 2.44708523e-01 2.44708523e-01 2.44708523e-01
      2.91458406e-02 5.12301475e-02 1.21423572e-01 2.44708523e-01
      2.34582767e-01 2.34582767e-01 1.99125543e-01 4.37843651e-02
      7.60648623e-02 4.38331775e-02 2.45912839e-02 7.95262083e-02
      2.34582767e-01 2.34582767e-01 1.20879464e-01 1.76966622e-01
      4.85575348e-02 2.15130135e-01 1.04221582e-01 2.34582767e-01
      1.76539540e-01 2.34582767e-01 2.34582767e-01 1.56697035e-01
      1.23640954e-01 4.58195694e-02 9.78644043e-02 1.77636873e-02
      2.77383383e-02 1.00508593e-01 2.34582767e-01 2.34582767e-01
      1.70488432e-01 2.34582767e-01 1.37836799e-01 2.34582767e-01
      5.57504632e-02 1.46522731e-01 9.57018360e-02 2.34582767e-01
      2.03862354e-01 4.99711633e-02 1.10502921e-01 6.68916628e-02
      3.08577985e-01 1.76631689e-01 3.08577985e-01 2.32709542e-01
      2.21056640e-01 1.27166230e-03 8.16309985e-05 1.10986996e-02
      9.81686637e-03 1.60186172e-01 3.68588977e-02 1.08645044e-01
      2.39311252e-02 1.48855068e-03 2.33828530e-01 1.56634554e-01
      3.08577985e-01 2.61581719e-01 3.08577985e-01 1.00381382e-01
      2.84626365e-01 9.80907828e-02 1.52735978e-01 6.29010843e-03
      1.27756707e-02 8.04650560e-02 5.38398176e-02 3.08577985e-01
      2.38901600e-02 6.55571446e-02 1.01276208e-02 3.85499443e-03
      2.66431659e-01 6.03099950e-02 1.46414623e-01 1.23488665e-01
      2.44947284e-01 4.88290749e-02 1.06949747e-01 1.46564648e-01
      3.20392400e-01 3.44798625e-01 2.42171839e-01 1.82540342e-01
      1.46477327e-01 2.94540048e-01 3.05025000e-02 1.46938026e-01
      3.44798625e-01 3.44798625e-01 3.36324684e-02 3.71374260e-03
      4.32381034e-03 2.50244630e-03 1.56033468e-02 1.01337660e-04
      1.69445276e-02 2.99789421e-02 5.35434447e-02 2.08452001e-01
      4.74840440e-02 6.44291053e-03 5.78722497e-03 2.91116089e-02
      7.32883636e-04 2.74827052e-02 6.80996552e-02 2.24599332e-01
      3.11048567e-01 2.50418782e-01 8.85854959e-02 3.77379581e-02
      1.80646330e-01 1.73439868e-02 8.38421807e-02 2.42238805e-01
      3.11048567e-01 3.11048567e-01 3.11048567e-01 3.11048567e-01
      1.53885350e-01 3.11048567e-01 2.15164870e-02 7.79987574e-02
      1.01402007e-01 3.11048567e-01 1.48324206e-01 5.61156385e-02
      9.33449622e-03 4.93545365e-03 3.44211012e-02 3.10340803e-03
      2.03752462e-02 4.25973758e-02 1.37795329e-01 1.86231062e-01
      6.82987124e-02 2.09307782e-02 6.94017252e-03 2.61199642e-02
      3.56980180e-03 2.19705459e-02 2.78414786e-02 1.37990534e-01
      3.58273447e-01 3.58273447e-01 3.58273447e-01 3.58273447e-01
      3.58273447e-01 1.91763435e-02 2.59710718e-02 3.31374444e-02
      3.58273447e-01 3.07094865e-02 6.04180656e-02 1.33731887e-01
      9.72524583e-02 3.36133718e-01 4.02564369e-03 6.27859772e-05
      2.09820228e-05 1.84651427e-02 2.16628462e-01 1.13686435e-01
      3.03185284e-02 2.29888000e-02 2.93150507e-02 1.23818556e-03
      7.23542506e-03 9.96898301e-03 1.26521885e-01 8.46219715e-03
      1.51801538e-02 6.61959732e-03 7.83926342e-03 9.21517704e-03
      2.84992529e-05 0. 0. 5.42296050e-03</_>
    <_>
      0. 0. 0. 0. 0. 0. 0. 0. 0. 0. 0. 0. 0. 0. 0. 0. 0. 0.
      4.87578399e-02 1.75824434e-01 2.12732106e-01 4.54824790e-02
      1.33210972e-01 1.37149321e-03 8.65576294e-05 1.02350794e-04
      2.43519731e-02 4.26579148e-01 4.26579148e-01 4.26579148e-01
      9.89537761e-02 3.27257395e-01 5.07442886e-03 1.90830812e-01
      1.24792226e-01 4.26579148e-01 0. 0. 0. 0. 0. 0. 0. 0. 0. 0. 0. 0.
      0. 0. 0. 0. 0. 0. 2.90048599e-01 2.90048599e-01 2.90048599e-01
      3.87693793e-02 2.61728317e-01 7.32235052e-03 2.86370128e-01
      1.61667019e-01 2.90048599e-01 2.90048599e-01 2.90048599e-01
      1.97464660e-01 3.94277647e-02 2.88302958e-01 4.87778336e-02
      2.73357749e-01 1.70975804e-01 2.90048599e-01 0. 0. 0. 0. 0. 0. 0.
      0. 0. 0. 0. 0. 0. 0. 0. 0. 0. 0. 3.60243767e-01 3.60243767e-01
      1.98962837e-01 1.92381013e-02 2.30606169e-01 2.29493856e-01
      3.60243767e-01 2.85045147e-01 3.60243767e-01 1.53498247e-01
      9.44445282e-03 7.20079709e-03 6.33241958e-04 1.13071591e-01
      1.49820864e-01 3.60243767e-01 1.25875294e-01 2.13752672e-01
      1.24528231e-02 5.50064333e-02 7.26473927e-02 2.73934100e-02
      2.31726095e-01 4.95832460e-03 7.31662964e-04 1.11775764e-04
      6.70783874e-03 2.81179905e-01 3.28273714e-01 3.30203265e-01
      8.12005624e-02 3.30203265e-01 1.24730617e-02 4.39149588e-02
      2.30674651e-02 1.85142711e-01 6.38659811e-03 1.85219850e-02
      2.82123294e-02 1.90561507e-02 3.30203265e-01 5.81380762e-02
      5.24396934e-02 1.11961905e-02 1.21801272e-02 2.19399214e-01
      1.26403108e-01 1.65326595e-01 7.17119351e-02 3.30203265e-01
      1.51922345e-01 2.28906646e-01 1.27519578e-01 2.66456395e-01
      2.29490906e-01 2.29490906e-01 2.28515282e-01 4.32444476e-02
      2.29490906e-01 8.88091233e-03 1.21830076e-01 6.32335097e-02
      2.27570355e-01 2.29490906e-01 1.90742984e-01 1.08562708e-01
      2.37255786e-02 2.26712912e-01 3.29596214e-02 1.77455738e-01
      1.37845024e-01 2.29490906e-01 2.29490906e-01 1.14740521e-01
      1.28427088e-01 5.09380437e-02 2.29490906e-01 6.29348680e-02
      1.45653203e-01 1.47481471e-01 2.29490906e-01 2.29490906e-01
      1.25417233e-01 1.25924915e-01 6.78536966e-02 2.29490906e-01
      3.80170345e-02 1.07587501e-01 1.16113812e-01 2.29490906e-01
      2.70685047e-01 1.23484418e-01 6.29986227e-02 1.08410046e-02
      2.83853054e-01 8.50057676e-02 2.83853054e-01 1.47784799e-01
      2.78738618e-01 3.50081101e-02 3.31607787e-03 1.34972818e-02
      3.79045936e-03 2.83853054e-01 5.97478114e-02 2.29697987e-01
      5.60062602e-02 5.22978976e-02 2.37113073e-01 1.24577157e-01
      2.75368989e-01 1.45447895e-01 2.83853054e-01 4.50975560e-02
      2.13986218e-01 8.98867995e-02 2.13257656e-01 2.84187514e-02
      2.66540796e-02 1.67687863e-01 1.05098650e-01 2.83853054e-01
      2.85142064e-02 1.34798661e-01 2.86587682e-02 2.65039932e-02
      1.60285383e-02 4.92216263e-04 5.15301013e-04 3.03786620e-03
      3.57054114e-01 9.23436284e-02 1.74726546e-01 5.05316891e-02
      5.34151457e-02 3.57054114e-01 4.80302200e-02 3.85212377e-02
      3.54442336e-02 3.57054114e-01 2.59027570e-01 3.57054114e-01
      3.57054114e-01 3.57054114e-01 5.81184216e-03 3.63021059e-06
      1.42153085e-05 6.85719078e-06 1.20904287e-02 9.86225321e-04
      3.33515517e-02 1.49782225e-02 1.84085872e-02 1.49876401e-01
      2.19906028e-02 1.33734820e-02 6.79769507e-03 2.75076218e-02
      6.09289808e-03 1.17304213e-01 1.23520523e-01 2.44529977e-01
      2.88887590e-01 1.02542490e-01 9.61538777e-02 8.54109079e-02
      2.88887590e-01 1.14088252e-01 2.87729412e-01 2.88887590e-01
      2.88887590e-01 2.88887590e-01 1.68797866e-01 2.11361811e-01
      1.72069550e-01 2.88887590e-01 9.72811058e-02 9.28352326e-02
      1.05427139e-01 2.88887590e-01 1.43423080e-01 4.65122461e-02
      3.53307314e-02 2.55005416e-02 2.93352138e-02 1.42491087e-02
      5.33312932e-02 8.47228393e-02 1.84244066e-01 1.93708062e-01
      4.46018539e-02 3.68778333e-02 3.81787494e-02 6.89035878e-02
      3.30120213e-02 2.90055815e-02 2.46959813e-02 1.96996212e-01
      3.14526618e-01 2.61221677e-01 3.14526618e-01 3.14526618e-01
      3.14526618e-01 4.31160480e-02 3.99934351e-02 1.73793845e-02
      3.14526618e-01 1.19335331e-01 9.54397842e-02 3.14526618e-01
      2.27125898e-01 3.14526618e-01 2.42659706e-03 8.92092660e-03
      1.71544030e-03 8.45028311e-02 2.58747339e-01 6.69763163e-02
      6.31293878e-02 3.54254320e-02 6.77366927e-02 1.55792870e-02
      1.29844649e-02 7.06134830e-03 2.43353650e-01 5.51966578e-02
      3.26598287e-02 4.21879031e-02 2.28253212e-02 3.39426734e-02
      6.46150074e-05 8.10447600e-05 8.16627871e-05 4.11442555e-02</_>
    <_>
      1.24223279e-02 3.54092009e-02 8.34977552e-02 1.58079434e-03
      6.00773317e-04 5.30128491e-05 3.97888804e-03 7.05751590e-03
      9.19782091e-03 6.69638589e-02 9.32182446e-02 1.83389798e-01
      7.71582173e-03 2.35520024e-02 1.10059455e-02 7.64525756e-02
      9.83381569e-02 9.11601931e-02 2.49885507e-02 2.00253546e-01
      3.79340261e-01 2.33977839e-01 1.88829944e-01 1.04237546e-03
      1.04871355e-02 1.61222350e-02 1.83733813e-02 1.52364671e-01
      3.79340261e-01 3.79340261e-01 2.82665730e-01 3.01063716e-01
      4.85884286e-02 2.00642481e-01 2.52237678e-01 2.29739293e-01
      4.26787995e-02 3.81607041e-02 6.11238331e-02 7.47630559e-03
      3.61315347e-02 1.16399657e-02 5.48124872e-02 6.71155825e-02
      6.95695803e-02 1.21476851e-01 2.49223262e-02 3.64728421e-02
      5.33782504e-03 1.87523179e-02 3.08306073e-03 4.09057271e-03
      1.34042162e-03 1.18873499e-01 1.62086546e-01 2.91408002e-01
      2.91408002e-01 1.05847016e-01 2.80929625e-01 5.95315769e-02
      2.29226381e-01 2.18080088e-01 2.32859507e-01 2.91408002e-01
      2.25362018e-01 2.69634515e-01 7.54332766e-02 2.91408002e-01
      7.61863366e-02 2.91408002e-01 1.61913574e-01 2.91408002e-01
      1.70191363e-01 1.73693690e-02 4.10279408e-02 5.15518151e-03
      2.65799705e-02 8.55132286e-03 9.81662795e-03 1.67014281e-04
      1.82707235e-01 2.28381380e-02 2.32091150e-03 1.12618404e-02
      1.59997970e-03 1.25752296e-02 4.03576763e-03 4.52351151e-03
      4.44335892e-05 2.92345341e-02 3.51441652e-01 2.22215950e-01
      3.51441652e-01 1.01738475e-01 3.51441652e-01 2.19170183e-01
      3.51441652e-01 1.87023073e-01 3.51441652e-01 8.99706930e-02
      2.61260234e-02 1.09950900e-01 3.23337540e-02 3.18556875e-01
      9.05947834e-02 1.48330927e-01 3.48822623e-02 1.20131597e-01
      8.96321703e-03 6.48680180e-02 2.43619323e-01 2.43619323e-01
      2.43619323e-01 3.20898183e-02 5.72255552e-02 5.97438402e-03
      1.20013775e-02 4.19529900e-02 1.88477799e-01 2.43619323e-01
      2.43619323e-01 2.43619323e-01 2.43167467e-02 5.58505468e-02
      4.87986803e-02 7.09183291e-02 6.84452355e-02 5.04524261e-02
      2.08203346e-01 1.74183980e-01 2.43619323e-01 8.05667639e-02
      1.68495685e-01 1.07048176e-01 1.69869378e-01 2.43619323e-01
      1.62973970e-01 2.43619323e-01 1.80747792e-01 2.26254508e-01
      5.23420237e-02 1.57505929e-01 2.29780659e-01 2.43619323e-01
      7.03535527e-02 1.43386066e-01 2.40423232e-01 8.36057737e-02
      1.29472464e-01 1.82711799e-02 8.05779248e-02 8.01800117e-02
      1.02167711e-01 2.40423232e-01 1.55855909e-01 2.40423232e-01
      9.26682800e-02 2.40423232e-01 5.58028221e-02 2.40423232e-01
      1.14536904e-01 2.40423232e-01 2.40423232e-01 1.78031594e-01
      1.99491739e-01 8.06990191e-02 6.91124350e-02 2.61972398e-02
      8.86751637e-02 2.13381410e-01 2.40423232e-01 1.77358493e-01
      2.40423232e-01 2.40423232e-01 1.52458817e-01 2.40423232e-01
      2.95524877e-02 6.35048896e-02 1.26571178e-01 1.64939210e-01
      2.12614328e-01 1.31487578e-01 2.94082135e-01 1.66377008e-01
      2.94082135e-01 1.28520533e-01 2.94082135e-01 1.08238906e-01
      2.19026178e-01 1.54023366e-02 1.07743228e-02 5.45487851e-02
      5.84703088e-02 2.94082135e-01 5.24295904e-02 7.76947364e-02
      2.25351192e-02 2.08614934e-02 1.44031495e-01 2.88963318e-01
      2.94082135e-01 2.68623412e-01 2.94082135e-01 3.13690044e-02
      4.76685166e-02 5.47387525e-02 9.92486402e-02 1.21561177e-02
      3.09666544e-02 7.21492916e-02 9.87038612e-02 2.94082135e-01
      1.10309497e-02 1.03567876e-02 3.97816114e-03 2.96456274e-03
      1.66191474e-01 6.55280054e-02 1.71493769e-01 7.97211081e-02
      2.02510074e-01 8.03761482e-02 2.40544796e-01 2.97719598e-01
      3.19174230e-01 3.19174230e-01 3.19174230e-01 3.19174230e-01
      9.68482718e-02 1.55584157e-01 6.43349215e-02 2.85237253e-01
      3.19174230e-01 3.19174230e-01 6.67968858e-03 1.28680724e-03 0. 0.
      1.39301312e-06 0. 2.31377571e-03 9.86107253e-03 1.21362749e-02
      4.37851399e-02 1.96956359e-02 3.35265463e-03 0. 6.56706470e-06 0.
      3.82329221e-03 2.22351048e-02 4.15003859e-02 2.98271865e-01
      2.98271865e-01 2.79653341e-01 1.00084916e-01 8.43832865e-02
      4.82048281e-02 1.51692197e-01 2.98271865e-01 2.98271865e-01
      2.98271865e-01 2.98271865e-01 2.98271865e-01 1.58012033e-01
      1.77838862e-01 4.34121862e-02 9.60871726e-02 2.98271865e-01
      2.98271865e-01 3.42041850e-02 1.77606400e-02 4.46947338e-03
      6.50831907e-07 7.19058036e-04 4.13065631e-04 2.33074860e-03
      1.31114032e-02 2.69433670e-02 4.25358973e-02 1.97096039e-02
      4.05023945e-03 8.02692011e-06 1.38207455e-03 8.57905368e-04
      4.27323673e-03 2.48748101e-02 5.16892709e-02 3.64311546e-01
      3.64311546e-01 3.64311546e-01 3.64311546e-01 3.64311546e-01
      2.04689186e-02 4.66974713e-02 2.17326343e-01 3.64311546e-01
      5.69136254e-02 1.24590136e-01 1.82699338e-01 1.46210954e-01
      2.55341470e-01 1.68586592e-03 1.41583092e-04 2.68273172e-04
      1.45342406e-02 6.75782114e-02 4.64611761e-02 1.22700864e-02
      9.96822928e-06 6.37984951e-04 3.91934998e-04 2.59965938e-03
      1.94970947e-02 6.28494620e-02 3.15908040e-03 5.34528308e-03
      2.63087102e-03 0. 1.74981014e-05 0. 0. 3.93338894e-07
      1.26820628e-03</_>
    <_>
      0. 0. 0. 0. 0. 0. 0. 0. 0. 2.64516417e-02 6.38563465e-03
      6.67221006e-03 0. 0. 0. 0. 0. 2.20097993e-02 0. 0. 0.
      8.80889071e-04 1.04805361e-02 0. 0. 0. 0. 4.09571648e-01
      3.94687772e-01 4.09571648e-01 4.09571648e-01 4.09571648e-01
      8.50792334e-04 1.02075783e-03 1.87874492e-03 4.09571648e-01
      1.79150496e-02 7.60619808e-03 4.11636801e-03 0. 0. 0.
      1.79262168e-03 6.29197666e-03 1.81437228e-02 1.99752487e-02
      1.01472875e-02 4.82115755e-03 0. 0. 0. 3.53118544e-03
      1.21574076e-02 2.24058907e-02 3.24602097e-01 3.00574839e-01
      3.24602097e-01 1.70919836e-01 2.30605140e-01 2.12466432e-04
      4.00100201e-02 1.26514420e-01 3.24602097e-01 3.24602097e-01
      3.24602097e-01 2.37393603e-01 1.36979437e-02 2.31962819e-02
      3.00688902e-04 9.90452468e-02 3.24602097e-01 3.24602097e-01
      2.02315636e-02 1.11162905e-02 5.55688189e-03 0. 0. 0.
      3.89406923e-03 1.34009020e-02 2.27559041e-02 9.36039630e-03
      4.23652865e-03 1.58352940e-03 0. 0. 0. 2.59926985e-03
      8.05442873e-03 1.22860372e-02 3.33838195e-01 3.05659711e-01
      1.63905889e-01 3.60604463e-04 4.77954708e-02 3.33644338e-02
      2.45075434e-01 3.33838195e-01 3.33838195e-01 2.52702743e-01
      6.90300316e-02 3.39676738e-02 1.23271428e-03 2.44015679e-01
      1.15300894e-01 3.33838195e-01 3.33838195e-01 3.33838195e-01 0. 0.
      0. 6.41415128e-04 1.64719541e-02 1.16428935e-04 0. 0. 0.
      1.52731374e-01 1.11219108e-01 2.92630345e-01 4.27613139e-01
      4.75092471e-01 5.75972758e-02 2.86469460e-02 7.22584594e-03
      1.24987997e-01 0. 0. 0. 3.16045567e-04 2.36995369e-02
      7.03687314e-04 5.05068783e-06 1.68785095e-06 0. 1.48258165e-01
      1.91913638e-02 7.17413053e-02 1.37931615e-01 4.75092471e-01
      2.81826377e-01 1.79986298e-01 7.84189031e-02 2.33472258e-01
      2.13293657e-01 1.69665456e-01 2.17690647e-01 1.50832385e-01
      2.68167734e-01 3.69750746e-02 3.87878232e-02 4.99533899e-02
      1.89050257e-01 2.68167734e-01 2.18593627e-01 1.43640682e-01
      1.53602203e-02 7.80066550e-02 1.35191344e-02 5.43964989e-02
      1.74201027e-01 2.68167734e-01 2.23914132e-01 6.79166242e-02
      6.89481944e-02 5.21492474e-02 2.68167734e-01 1.35260135e-01
      1.42065898e-01 8.55301991e-02 2.68167734e-01 2.68167734e-01
      1.73850834e-01 9.59631801e-02 1.32193398e-02 1.48913145e-01
      5.01972847e-02 1.10760294e-01 1.24833345e-01 2.68167734e-01
      2.57241905e-01 1.16084948e-01 7.63315782e-02 1.03806444e-02
      1.39245063e-01 4.41331901e-02 1.48625970e-01 2.57241905e-01
      2.57241905e-01 9.63805765e-02 2.90979873e-02 5.08525297e-02
      4.00382318e-02 2.57241905e-01 1.43051714e-01 2.22578198e-01
      2.04877272e-01 1.93286672e-01 2.57241905e-01 1.86991617e-01
      1.71654642e-01 4.60408591e-02 2.22534806e-01 4.54866737e-02
      6.49603009e-02 1.05476767e-01 2.57241905e-01 2.08541363e-01
      1.14271350e-01 2.38100126e-01 1.66282222e-01 2.57241905e-01
      9.02251452e-02 6.04767874e-02 3.70187759e-02 1.42023027e-01 0. 0.
      0. 6.20004066e-05 2.25140676e-02 1.19577174e-03 2.46528107e-05
      8.23853679e-06 0. 4.43151951e-01 1.35807402e-03 2.33025942e-03
      7.39416806e-03 4.43151951e-01 4.43151951e-01 3.68014783e-01
      2.46115565e-01 4.43151951e-01 0. 0. 0. 1.58975251e-06
      2.05164150e-04 0. 3.52183019e-06 1.17693367e-06 0. 6.31947219e-02
      0. 0. 6.20004066e-05 1.08898086e-02 8.18441156e-03 9.88536142e-03
      1.92349441e-02 9.38813314e-02 3.41742247e-01 1.15495630e-01
      2.69420426e-02 2.58028880e-03 3.41742247e-01 1.71177655e-01
      2.06739485e-01 1.83673248e-01 3.41742247e-01 3.41742247e-01
      3.41742247e-01 1.58906847e-01 1.35215372e-02 1.81084588e-01
      7.20100775e-02 1.74929783e-01 2.57629246e-01 3.41742247e-01
      5.58255464e-02 1.00763813e-02 1.21270423e-03 1.25821098e-05
      2.35135271e-03 2.10632966e-03 2.51723500e-03 1.07658422e-02
      6.90813884e-02 5.75084016e-02 2.09992602e-02 4.53607459e-03 0.
      1.46171788e-03 1.47221412e-03 2.30646087e-03 1.35982474e-02
      5.94680943e-02 3.11047018e-01 3.11047018e-01 2.83468723e-01
      6.61333352e-02 2.18352824e-01 5.17431349e-02 6.21738024e-02
      2.14425936e-01 3.11047018e-01 3.11047018e-01 2.59596020e-01
      3.11047018e-01 2.25699201e-01 3.11047018e-01 7.52921123e-03
      6.28046133e-03 3.97603214e-02 3.11047018e-01 6.91011474e-02
      1.22948019e-02 2.75397184e-03 5.13009611e-04 1.89220998e-03
      1.79375801e-03 3.01203527e-03 1.79357044e-02 6.25403002e-02
      6.13644160e-02 1.43074850e-02 3.17620928e-03 2.31713965e-03
      8.41170724e-04 1.76094021e-04 3.48784088e-04 3.90918087e-03
      3.89968976e-02</_>
    <_>
      4.38381830e-05 1.08794004e-04 1.27302686e-04 2.35893516e-04
      2.30590769e-04 0. 0. 0. 0. 1.19275704e-01 2.08866950e-02
      6.08768091e-02 1.14476690e-02 9.57507826e-03 9.50630856e-05
      4.64746736e-05 0. 9.98736992e-02 1.71525229e-03 6.87955273e-03
      2.17653103e-02 5.13109900e-02 1.10812023e-01 3.11394891e-04
      7.65411369e-06 1.64710145e-05 5.56173700e-06 3.98309678e-01
      3.98309678e-01 3.98309678e-01 3.98309678e-01 3.98309678e-01
      9.85838752e-03 3.41129350e-03 2.36988929e-03 3.98309678e-01
      8.71699974e-02 1.51098846e-02 2.56672148e-02 2.56551802e-03
      2.11045030e-03 4.01606485e-05 1.58118624e-02 1.06333727e-02
      7.49236420e-02 6.72086775e-02 2.06844565e-02 1.54367425e-02
      3.76767312e-05 4.77811009e-05 1.82538079e-05 3.84593345e-02
      2.48315930e-02 5.84823713e-02 3.07839125e-01 2.42005229e-01
      3.07839125e-01 1.46011114e-01 2.13549137e-01 7.88323488e-03
      1.23079509e-01 7.89461881e-02 3.07839125e-01 3.07839125e-01
      3.07839125e-01 2.54045635e-01 9.76826064e-03 2.44699158e-02
      3.82971838e-02 3.07839125e-01 3.07839125e-01 3.07839125e-01
      5.30275181e-02 1.94792356e-02 6.30029989e-03 1.96386122e-06
      1.01169881e-05 4.82924452e-06 1.55279562e-02 2.06062905e-02
      5.28868623e-02 2.53926162e-02 5.10089565e-03 1.44246325e-04 0.
      3.42327075e-06 0. 3.83430044e-03 1.62642058e-02 3.33905034e-02
      3.21666658e-01 3.21666658e-01 1.36416107e-01 5.78772370e-03
      3.10120229e-02 3.95187214e-02 3.15583855e-01 3.21666658e-01
      3.21666658e-01 3.21666658e-01 4.92405184e-02 1.73034593e-02
      2.83438805e-02 1.65776163e-01 9.22113881e-02 3.21666658e-01
      3.21666658e-01 3.21666658e-01 4.33634908e-04 1.84972398e-03
      1.50819942e-02 3.36771570e-02 1.42868876e-01 1.12389470e-03
      8.83445027e-04 2.37780660e-05 9.90063927e-06 1.24315724e-01
      1.26536995e-01 3.84020597e-01 3.84020597e-01 3.84020597e-01
      5.23416102e-02 7.49340951e-02 1.46541884e-02 8.84257481e-02
      5.47261268e-04 2.04649805e-05 9.99954715e-03 1.47938319e-02
      1.94678798e-01 1.66196637e-02 2.41060499e-02 2.88808881e-03
      1.17791281e-03 1.48503229e-01 1.82399806e-02 1.34010956e-01
      1.48082152e-01 3.84020597e-01 2.15806186e-01 3.49311113e-01
      1.47126794e-01 2.12242514e-01 2.25102186e-01 1.40211761e-01
      2.44402796e-01 1.34408280e-01 2.44402796e-01 4.64632325e-02
      1.12972297e-01 4.17426191e-02 1.58978432e-01 2.44402796e-01
      2.07265317e-01 1.46471903e-01 1.62528995e-02 3.43405418e-02
      3.35110947e-02 1.80305436e-01 1.77271113e-01 2.44402796e-01
      2.44402796e-01 3.54920104e-02 8.40931088e-02 5.74173518e-02
      2.44402796e-01 1.09410673e-01 2.44402796e-01 1.13701746e-01
      2.44402796e-01 2.44402796e-01 1.31616935e-01 6.64254278e-02
      1.00288372e-02 2.66175997e-02 3.19840126e-02 1.83655381e-01
      2.12504029e-01 2.44402796e-01 2.57566839e-01 1.25699744e-01
      8.42139199e-02 2.26786658e-02 9.76259559e-02 3.15540619e-02
      1.65930822e-01 2.43160665e-01 2.57566839e-01 1.45251065e-01
      2.32660174e-02 6.78644702e-02 7.80710503e-02 2.57566839e-01
      1.04605339e-01 2.18350410e-01 2.31228024e-01 2.32091427e-01
      2.57566839e-01 1.99898124e-01 1.72241241e-01 3.06662880e-02
      1.12887062e-01 1.35229602e-02 9.19291973e-02 1.74867466e-01
      2.57566839e-01 2.17458129e-01 1.57990307e-01 1.89446226e-01
      1.37685522e-01 2.57566839e-01 5.50218076e-02 7.10592717e-02
      4.48110998e-02 1.44197360e-01 2.70878756e-03 0. 4.75118682e-03
      3.80021357e-03 1.98304057e-01 4.57800105e-02 6.88121468e-02
      1.19024049e-02 5.81215043e-03 3.91845465e-01 7.24274723e-04
      3.43160257e-02 2.65524238e-02 3.91845465e-01 3.91845465e-01
      3.91845465e-01 3.91845465e-01 3.91845465e-01 3.85274878e-04 0. 0.
      0. 8.80314969e-04 7.33941968e-04 1.13981403e-03 1.02608453e-03
      8.03160714e-04 9.40590203e-02 0. 0. 0. 6.11964054e-03
      6.31889096e-03 1.44479666e-02 4.58324067e-02 1.23820461e-01
      3.72226089e-01 2.80047692e-02 5.94646484e-03 4.37875697e-03
      1.73631117e-01 1.13285162e-01 2.68102229e-01 1.98948950e-01
      3.72226089e-01 3.72226089e-01 2.30948389e-01 5.75231910e-02
      1.55749207e-04 8.62950925e-03 2.37700231e-02 2.40726694e-01
      3.72226089e-01 3.72226089e-01 8.12281743e-02 2.86969682e-03
      2.78084303e-06 0. 9.40560421e-04 1.06440089e-03 2.75485008e-03
      1.12163275e-02 8.15100297e-02 9.95668098e-02 9.04253125e-03
      1.05091904e-05 0. 1.12025027e-05 1.02855711e-05 7.10966811e-03
      3.31248306e-02 9.20690596e-02 3.20358843e-01 3.20358843e-01
      2.05437645e-01 1.14360070e-02 4.22228985e-02 3.85386613e-03
      1.36578828e-01 3.20358843e-01 3.20358843e-01 3.20358843e-01
      3.20358843e-01 2.22713515e-01 1.13854535e-01 3.20358843e-01
      9.07221902e-03 2.93856654e-02 7.94788450e-02 3.20358843e-01
      9.79246721e-02 3.67830582e-02 6.24314137e-03 2.54240913e-05
      2.86292961e-05 2.24352625e-05 1.56018743e-02 5.83044738e-02
      1.06010802e-01 8.75717327e-02 6.39437810e-02 1.42523032e-02
      1.10880740e-03 3.29080317e-03 6.51346500e-06 4.96505154e-03
      1.95479169e-02 7.00374097e-02</_>
    <_>
      0. 0. 0. 0. 0. 0. 0. 0. 0. 1.43506685e-02 3.39673995e-03
      6.23468682e-03 0. 6.55944459e-05 0. 1.99003867e-03 4.28099325e-03
      1.37775112e-02 3.27972230e-05 7.55956676e-03 2.35891193e-02
      4.93962690e-03 7.49353468e-02 1.65711986e-04 0. 0. 3.27972230e-05
      4.27911043e-01 4.60001767e-01 4.60001767e-01 8.27585608e-02
      4.60001767e-01 2.70642550e-03 7.85606205e-02 1.68924794e-01
      3.59453857e-01 9.39792208e-03 1.33160234e-03 2.44761328e-03 0.
      1.56824408e-05 0. 1.28245947e-03 2.51892325e-03 1.02543477e-02
      8.91360454e-03 3.34270677e-04 6.15783094e-04 0. 1.27154897e-06 0.
      6.12473290e-04 1.10567664e-03 9.86144133e-03 3.51897866e-01
      3.39854062e-01 3.51897866e-01 1.44458245e-02 1.22394845e-01
      4.77209076e-04 5.09512052e-02 1.64155588e-01 3.51897866e-01
      3.51897866e-01 3.10960501e-01 9.73014086e-02 1.35462894e-03
      8.21339618e-03 1.20000746e-04 4.50853407e-02 3.29296857e-01
      3.51897866e-01 1.01002790e-02 0. 0. 0. 0. 0. 0. 0. 1.00445291e-02
      4.79059154e-03 0. 0. 0. 0. 0. 0. 0. 5.58029907e-03 3.66238654e-01
      2.46113390e-01 1.94685592e-03 1.29620964e-03 9.79841352e-02
      5.75365014e-02 1.61793903e-01 3.66238654e-01 3.66238654e-01
      3.15416276e-01 3.53539027e-02 1.59041805e-03 1.59712695e-03
      2.67685443e-01 1.72779590e-01 2.15688035e-01 3.33351582e-01
      3.66238654e-01 8.47670253e-06 2.88578169e-03 9.79175419e-03
      2.53226422e-03 9.26996768e-02 2.87611946e-03 1.16470479e-03
      2.67830892e-05 8.47670253e-06 9.04538780e-02 2.66588211e-01
      4.43526804e-01 4.27082032e-02 4.43526804e-01 4.29739021e-02
      5.80547266e-02 4.12617661e-02 7.61059523e-02 2.21439514e-05
      6.10777584e-04 2.39735469e-03 8.73836398e-04 1.05872512e-01
      1.34883123e-02 8.13049451e-03 3.30324547e-04 2.21439514e-05
      1.28544778e-01 6.02902621e-02 1.52904049e-01 1.81719158e-02
      4.43526804e-01 2.56097436e-01 3.48952830e-01 1.57738894e-01
      1.88024074e-01 2.12709337e-01 1.97343975e-01 2.70219207e-01
      1.33932279e-02 2.70219207e-01 1.13841128e-02 4.26308624e-02
      6.59154356e-02 2.10178614e-01 2.70219207e-01 1.77971750e-01
      7.92424455e-02 1.40810339e-03 4.35746349e-02 5.83701709e-04
      3.54336761e-02 1.64198741e-01 2.70219207e-01 2.45123371e-01
      7.84791484e-02 9.93336365e-02 6.39908062e-03 2.70219207e-01
      6.94622323e-02 1.85138077e-01 1.36196971e-01 2.64075220e-01
      2.70219207e-01 1.75162911e-01 4.94990535e-02 9.51707480e-04
      6.29266202e-02 3.39810480e-03 7.44909421e-02 1.92538574e-01
      2.70219207e-01 2.60808527e-01 9.97086242e-02 2.57308763e-02
      6.53441530e-03 1.93324238e-01 5.00369035e-02 1.42771855e-01
      2.45464355e-01 2.60808527e-01 1.04536511e-01 2.05348972e-02
      4.94874753e-02 2.63304804e-02 2.60808527e-01 1.61275670e-01
      2.09344313e-01 1.55544356e-01 1.73277438e-01 2.60808527e-01
      2.11150467e-01 1.50583163e-01 3.37437578e-02 2.49050468e-01
      2.59020906e-02 7.72457123e-02 1.42255470e-01 2.60808527e-01
      1.59017622e-01 1.25369877e-01 2.60808527e-01 1.25284374e-01
      2.60808527e-01 8.77014846e-02 1.19404040e-01 3.70050408e-02
      1.19253092e-01 1.05506930e-04 0. 0. 2.17579200e-05 7.32790008e-02
      2.15238072e-02 1.54316984e-02 7.29834486e-04 1.05506930e-04
      4.01925713e-01 6.14445917e-02 1.05162943e-02 5.39943716e-03
      4.01925713e-01 4.01925713e-01 4.01925713e-01 4.01925713e-01
      4.01925713e-01 1.50724190e-05 0. 0. 0. 3.81600956e-04
      7.58692040e-05 0. 0. 1.50724190e-05 6.77443966e-02 8.64766445e-03
      1.37543539e-03 0. 1.32341422e-02 6.65002409e-03 1.68863181e-02
      5.18464036e-02 9.41987112e-02 3.36353600e-01 1.17459156e-01
      1.44461701e-02 1.69691734e-03 3.26879144e-01 1.01665385e-01
      2.70141304e-01 2.84688145e-01 3.36353600e-01 3.36353600e-01
      3.36353600e-01 3.94579172e-02 5.52051875e-04 2.96150390e-02
      5.92549238e-03 1.01516612e-01 3.36353600e-01 3.36353600e-01
      6.45096898e-02 1.48237860e-02 1.82842556e-03 0. 2.64098449e-03
      1.49999710e-03 6.20825309e-03 2.06630211e-02 5.99996150e-02
      7.54221752e-02 2.21030191e-02 2.50002416e-03 7.98372730e-06
      3.34984506e-05 1.27503255e-04 2.53329286e-03 1.53077990e-02
      7.04324618e-02 3.31632823e-01 3.31632823e-01 2.19454676e-01
      5.18059805e-02 1.39100209e-01 4.35718941e-03 2.57093627e-02
      2.25073010e-01 3.31632823e-01 3.31632823e-01 2.82517791e-01
      3.31632823e-01 1.78424224e-01 3.08784634e-01 8.66913702e-03
      1.12131238e-02 8.03272985e-03 3.17211151e-01 7.75616542e-02
      1.61118396e-02 2.86885933e-03 2.48218945e-04 1.30033499e-04
      6.47014313e-05 1.24592730e-03 1.33676743e-02 8.60781521e-02
      4.42071408e-02 1.67668834e-02 5.05265919e-03 7.85008015e-04
      3.85518244e-04 0. 3.93946311e-06 7.88480684e-04 3.50774452e-02</_>
    <_>
      3.76170283e-05 0. 0. 0. 1.14145041e-06 0. 0. 0. 5.48655225e-06
      1.19052887e-01 2.28069499e-02 5.82196712e-02 7.28953406e-02
      1.69115439e-01 1.13637090e-01 2.88327247e-01 7.19216019e-02
      1.03673346e-01 1.46387820e-03 5.79918176e-03 2.03941651e-02
      4.24013510e-02 5.51718026e-02 1.39099760e-02 2.92439043e-04
      4.41756083e-06 2.11703664e-04 2.63777703e-01 3.45281810e-01
      3.45281810e-01 3.45281810e-01 3.45281810e-01 3.31580698e-01
      3.45281810e-01 1.58543840e-01 1.62299469e-01 6.86605647e-02
      9.45378933e-03 2.77646147e-02 3.35871205e-02 7.77299702e-02
      7.21453726e-02 2.13019133e-01 7.29108900e-02 7.14861974e-02
      3.22333910e-02 2.76394584e-03 6.06430322e-03 5.91519475e-03
      1.56242652e-02 2.34424863e-02 9.50780213e-02 5.21222241e-02
      4.55236472e-02 2.36029014e-01 2.46013463e-01 2.60598719e-01
      2.28429988e-01 2.60598719e-01 1.57719940e-01 2.60598719e-01
      2.47906446e-01 2.42357969e-01 2.60598719e-01 1.81628004e-01
      2.22065315e-01 7.77808055e-02 1.59435555e-01 7.25632980e-02
      2.60598719e-01 2.60598719e-01 2.60598719e-01 3.53656225e-02
      2.71812198e-03 1.49454642e-03 0. 5.39570872e-04 3.56190925e-04
      6.62807561e-03 8.81818775e-03 3.84339765e-02 1.96810979e-02
      2.81572109e-04 1.35614202e-04 0. 0. 0. 1.97397149e-03
      1.94320187e-03 2.20137388e-02 3.31768811e-01 1.67370915e-01
      1.36301368e-01 3.37136798e-02 1.29779264e-01 4.47973460e-02
      3.31768811e-01 3.31768811e-01 3.31768811e-01 3.31768811e-01
      1.28350314e-02 6.52223965e-03 3.08454270e-04 1.79367125e-01
      1.15864255e-01 3.31768811e-01 3.31768811e-01 3.31768811e-01
      5.12618280e-04 2.50979955e-03 1.11726392e-02 4.40887846e-02
      9.05027911e-02 3.19932140e-02 1.59706001e-03 1.01024016e-04
      8.63065070e-05 5.77497222e-02 2.32242286e-01 3.29066694e-01
      3.29066694e-01 3.29066694e-01 3.29066694e-01 1.03146605e-01
      3.04908715e-02 2.55248100e-02 4.83795920e-05 1.04492516e-04
      2.33384501e-03 2.59675253e-02 9.71235558e-02 4.46834937e-02
      1.22379456e-02 2.50032754e-03 4.75329398e-05 6.25451952e-02
      1.93684381e-02 5.17929606e-02 2.38907486e-01 3.29066694e-01
      3.29066694e-01 3.29066694e-01 2.37903669e-01 1.58189639e-01
      1.26065418e-01 1.69105023e-01 2.29920864e-01 1.66165441e-01
      2.46572047e-01 1.35277286e-01 1.38656735e-01 8.06648284e-02
      1.11990511e-01 2.46572047e-01 1.38810471e-01 1.69233203e-01
      5.04667163e-02 1.36256278e-01 4.69588824e-02 1.83380291e-01
      1.76612243e-01 2.46572047e-01 1.70102507e-01 3.31876837e-02
      4.54805605e-02 6.96868226e-02 2.46572047e-01 1.95467025e-01
      2.25483865e-01 2.15614498e-01 2.46572047e-01 2.46572047e-01
      8.96332487e-02 4.40275148e-02 8.69021192e-03 6.94173798e-02
      4.25272174e-02 1.32066280e-01 2.18516216e-01 2.46572047e-01
      2.67894775e-01 7.01045692e-02 7.07261935e-02 1.69437099e-02
      1.33639380e-01 5.34562618e-02 2.24898875e-01 2.04265028e-01
      2.67894775e-01 1.52997583e-01 1.30950706e-02 2.93931067e-02
      2.82159820e-02 2.67894775e-01 1.46096930e-01 2.67894775e-01
      1.98139176e-01 2.28339642e-01 2.67894775e-01 1.23783089e-01
      1.00207135e-01 1.16468342e-02 1.10234708e-01 5.55767901e-02
      1.11835524e-01 1.28109008e-01 2.67894775e-01 1.93779901e-01
      1.12591319e-01 2.09506243e-01 8.78211930e-02 2.67894775e-01
      1.18440621e-01 1.20242476e-01 4.14534844e-02 1.79014206e-01
      1.86538426e-04 1.55996058e-05 1.15862081e-03 1.47141544e-02
      9.43578631e-02 5.45064211e-02 3.37223150e-02 8.17739777e-03
      1.83730022e-04 3.33591580e-01 2.69305287e-03 1.46498894e-02
      1.31460175e-01 4.08693850e-01 4.08693850e-01 4.08693850e-01
      4.08693850e-01 4.08693850e-01 1.45267568e-05 0. 0. 0.
      2.87644489e-05 1.11853129e-04 4.10445464e-05 0. 1.45267568e-05
      4.56570983e-02 6.69345536e-06 2.00293707e-05 0. 5.24935196e-04
      4.36791731e-03 1.24361953e-02 7.30452091e-02 1.05291322e-01
      3.64864022e-01 1.97262038e-02 5.71063533e-03 1.62857585e-02
      1.36683717e-01 1.27099082e-01 2.69168884e-01 3.64864022e-01
      3.64864022e-01 3.64864022e-01 1.53684586e-01 3.04161888e-02
      6.36587138e-05 1.65276844e-02 2.05653273e-02 1.55944526e-01
      3.64864022e-01 3.64864022e-01 5.88952191e-02 2.64767348e-03
      4.13542788e-04 0. 1.52351175e-04 7.24848418e-04 3.87723162e-03
      2.61767562e-02 8.21253136e-02 1.10967055e-01 1.29481275e-02
      1.88001350e-03 0. 1.19181852e-04 2.25638778e-05 1.04935290e-02
      2.78644245e-02 1.25591010e-01 3.42644185e-01 2.12619126e-01
      1.23788767e-01 1.07436720e-02 3.76466811e-02 2.36002877e-02
      1.04472712e-01 2.63925821e-01 3.42644185e-01 3.42644185e-01
      2.59292066e-01 3.42644185e-01 8.89472067e-02 3.42644185e-01
      4.15141806e-02 3.64556275e-02 6.58076704e-02 3.42644185e-01
      1.26176581e-01 1.56710111e-02 4.99147875e-03 2.55668041e-04
      3.17414902e-04 4.97674409e-05 1.76246036e-02 4.50163744e-02
      1.44776449e-01 1.17979288e-01 4.11776379e-02 2.86690183e-02
      3.61374021e-03 7.23171653e-03 7.60504554e-05 4.27680835e-03
      1.62408631e-02 1.00773141e-01</_>
    <_>
      7.39288807e-04 4.39183880e-03 1.75089203e-02 4.20421921e-03
      7.36308889e-03 1.79927520e-05 0. 5.23360768e-06 7.12100591e-04
      1.82984009e-01 8.39578062e-02 1.64681077e-01 4.58269976e-02
      7.15806261e-02 6.46439788e-04 2.50902083e-02 4.58935834e-02
      1.79822445e-01 1.48559373e-03 1.94797143e-02 1.20043337e-01
      1.05357625e-01 2.74623781e-01 3.72695993e-03 2.24258169e-03
      1.49132567e-04 1.50667981e-03 3.57985169e-01 3.57985169e-01
      3.57985169e-01 3.57985169e-01 3.57985169e-01 1.95649583e-02
      6.61276355e-02 1.05208196e-01 3.57985169e-01 1.64532214e-01
      3.26040573e-02 6.62635565e-02 1.72055233e-02 3.32879163e-02
      5.30870631e-03 2.29073390e-02 4.13835570e-02 1.75236315e-01
      1.08853817e-01 1.85219403e-02 3.71891744e-02 9.30743758e-03
      4.72808890e-02 6.49450812e-03 1.51921576e-02 3.15805525e-02
      1.20963000e-01 2.70580649e-01 2.70580649e-01 2.70580649e-01
      1.29521176e-01 2.70580649e-01 4.57608178e-02 1.58258736e-01
      1.35425836e-01 2.70580649e-01 2.70580649e-01 2.09995389e-01
      2.46497363e-01 8.44376013e-02 2.70580649e-01 5.69924638e-02
      2.70580649e-01 2.49352396e-01 2.70580649e-01 1.23339064e-01
      2.32007466e-02 1.82945579e-02 4.98391455e-03 3.84549983e-02
      2.64215609e-03 2.01702919e-02 4.92369980e-02 1.34143069e-01
      4.98161279e-02 2.63060699e-03 3.45171808e-04 4.90966559e-05
      5.04691573e-03 2.71337945e-03 2.44718567e-02 4.18575816e-02
      6.28765449e-02 3.00530881e-01 1.03736766e-01 9.60792825e-02
      7.28567466e-02 3.00530881e-01 1.14058934e-01 3.00530881e-01
      3.00530881e-01 3.00530881e-01 2.21349180e-01 1.10755665e-02
      3.19224736e-03 3.31645715e-03 3.00530881e-01 2.22330660e-01
      3.00530881e-01 3.00530881e-01 3.00530881e-01 2.38172812e-04
      4.12762119e-03 3.24896388e-02 4.36233692e-02 3.10097873e-01
      1.72757469e-02 1.98210757e-02 9.59525874e-04 2.74364924e-04
      8.32395256e-02 1.48512110e-01 3.15421373e-01 2.13670269e-01
      3.92950833e-01 1.25695288e-01 1.56086698e-01 3.77285480e-02
      6.48043305e-02 1.49823303e-04 0. 1.94351916e-04 2.00568512e-03
      2.40819618e-01 3.26171108e-02 6.14106208e-02 5.45323314e-03
      6.73510425e-04 6.48257136e-02 3.58748026e-02 5.88331670e-02
      2.70469971e-02 3.92950833e-01 2.88871258e-01 3.92950833e-01
      2.17720270e-01 9.85116363e-02 1.78941935e-01 2.48499468e-01
      2.48499468e-01 7.91966841e-02 2.48499468e-01 9.34413224e-02
      1.79961950e-01 7.85826743e-02 1.20620772e-01 1.89625666e-01
      1.73718989e-01 1.34944409e-01 4.08689193e-02 2.39113078e-01
      4.13497426e-02 2.48499468e-01 1.82606265e-01 1.55873492e-01
      7.28341937e-02 7.58329332e-02 1.07640758e-01 3.38613801e-02
      2.48499468e-01 1.98701575e-01 2.48499468e-01 2.48499468e-01
      1.26555547e-01 1.11036606e-01 9.07793865e-02 1.05247229e-01
      3.07619032e-02 2.48499468e-01 1.01319015e-01 2.01971084e-01
      1.50168031e-01 1.23831898e-01 1.35999084e-01 4.26823720e-02
      4.82437797e-02 3.94027829e-02 2.90773362e-01 7.97695369e-02
      2.90773362e-01 2.70298988e-01 1.77824050e-01 5.38832098e-02
      1.47180269e-02 2.31975019e-02 1.91863682e-02 2.90773362e-01
      1.40721127e-01 2.90773362e-01 1.52172327e-01 8.62406790e-02
      2.40752041e-01 1.74423188e-01 1.76000744e-01 6.13316782e-02
      2.90773362e-01 7.26707578e-02 1.43773824e-01 8.05915520e-02
      1.66314721e-01 1.58701107e-01 1.38226748e-01 2.03123495e-01
      9.11580473e-02 2.90773362e-01 4.52831313e-02 9.35415253e-02
      4.10910659e-02 1.02725208e-01 6.52406889e-04 0. 0. 5.76656719e-04
      1.68070689e-01 4.71460111e-02 1.00657798e-01 1.38160037e-02
      3.16994265e-03 2.63599068e-01 2.72522308e-02 9.08874199e-02
      9.04000923e-03 4.03690726e-01 4.03690726e-01 4.03690726e-01
      4.03690726e-01 4.03690726e-01 1.27819847e-04 0. 0. 1.02606839e-06
      7.52040825e-04 9.33152623e-04 1.38835295e-03 1.19365577e-03
      4.87467827e-04 4.80556488e-02 1.26091596e-02 4.47346121e-02
      1.67528226e-03 1.17112817e-02 2.69823708e-02 1.84996113e-01
      1.28918245e-01 7.46766627e-02 1.41785920e-01 9.05201063e-02
      2.63883352e-01 6.57697842e-02 2.91184276e-01 2.28170618e-01
      2.91184276e-01 2.91184276e-01 2.64858663e-01 1.78037077e-01
      1.75184712e-01 2.91184276e-01 9.10890698e-02 2.91184276e-01
      1.77789927e-01 2.91184276e-01 2.06223205e-01 2.00461313e-01
      3.72946821e-02 3.78499068e-02 1.17262535e-01 1.76450871e-02
      3.73206846e-02 2.36423537e-02 1.55779704e-01 8.21732208e-02
      5.51846176e-02 3.33738476e-02 4.92632985e-02 1.07527919e-01
      2.17298791e-02 5.46849780e-02 2.00445782e-02 6.79648146e-02
      3.28459516e-02 3.62990163e-02 2.99229920e-01 2.99229920e-01
      2.99229920e-01 8.28586668e-02 2.99229920e-01 1.36333928e-01
      1.47097260e-01 8.63065943e-02 2.99229920e-01 2.99229920e-01
      2.99229920e-01 2.99229920e-01 1.40274704e-01 2.99229920e-01
      1.95712205e-02 2.64425240e-02 1.94374267e-02 2.99229920e-01
      8.29118341e-02 6.48172647e-02 2.23294031e-02 4.04362939e-03
      2.73607317e-02 1.64641421e-02 2.40314286e-02 2.25688349e-02
      5.72066605e-02 6.80544525e-02 4.53205481e-02 1.98011510e-02
      2.49010720e-03 3.72336432e-03 2.45911931e-03 4.50797658e-03
      4.79393685e-03 4.28040139e-02</_>
    <_>
      3.31268623e-03 5.71471173e-03 8.88763182e-03 5.39764296e-04
      1.63017503e-05 5.87413751e-07 4.60308016e-04 1.13421842e-03
      3.33846943e-03 2.61727162e-02 2.64395382e-02 3.60051543e-02
      3.62677290e-03 3.75398248e-03 2.95761065e-03 1.84239615e-02
      2.54405309e-02 3.53766829e-02 9.67288986e-02 2.68891245e-01
      3.35875899e-01 1.18992679e-01 2.75229335e-01 1.27678935e-03
      3.53034167e-03 8.24401155e-03 7.72218257e-02 3.35875899e-01
      3.35875899e-01 3.35875899e-01 2.73634791e-01 3.35875899e-01
      3.66903581e-02 1.62353233e-01 1.85695514e-01 3.35875899e-01
      1.97113287e-02 1.48991104e-02 1.53410994e-02 2.77905934e-03
      4.64541651e-03 3.27644800e-03 1.49046853e-02 1.85242817e-02
      2.68694852e-02 2.90169828e-02 1.43952724e-02 4.64266539e-03
      6.67112996e-04 1.00278377e-03 3.17230355e-04 6.38036290e-03
      1.21007347e-02 2.77548395e-02 2.79543728e-01 2.88773984e-01
      2.88773984e-01 1.46599814e-01 1.61860317e-01 6.68186173e-02
      1.87211126e-01 1.52284592e-01 2.75581896e-01 2.88773984e-01
      2.88773984e-01 1.54041946e-01 3.80641893e-02 2.88773984e-01
      1.90069959e-01 2.88773984e-01 2.88773984e-01 2.88773984e-01
      2.87819393e-02 1.02585759e-02 2.81522819e-03 2.54606857e-04
      2.15860855e-04 1.16369927e-04 1.14715444e-02 1.95889939e-02
      2.84533091e-02 1.06912385e-05 0. 0. 0. 0. 9.43539726e-06
      5.09593112e-04 2.94502330e-04 5.25400792e-05 3.80619049e-01
      2.39486679e-01 1.17533162e-01 2.87374668e-02 3.80619049e-01
      3.37391168e-01 3.80619049e-01 3.80619049e-01 3.80619049e-01
      5.69528481e-03 6.27337140e-04 9.34825651e-03 1.48979807e-03
      2.30769426e-01 4.61728275e-02 1.45015404e-01 7.57178068e-02
      3.84424999e-02 3.45779993e-02 1.02517039e-01 2.00484648e-01
      1.02465227e-01 2.66025424e-01 4.37342189e-02 4.12685089e-02
      7.47954333e-03 2.65339278e-02 1.32429332e-01 2.66025424e-01
      2.66025424e-01 1.81869596e-01 2.66025424e-01 5.72964884e-02
      8.29475969e-02 5.07892147e-02 1.21387340e-01 4.49555703e-02
      4.89362255e-02 6.26768470e-02 5.84896430e-02 2.66025424e-01
      1.35215685e-01 1.82639539e-01 5.80471531e-02 4.29278426e-02
      2.55091548e-01 2.57199258e-01 1.71449870e-01 9.88894999e-02
      2.66025424e-01 1.60422578e-01 2.66025424e-01 1.47733599e-01
      2.65542656e-01 1.26276016e-01 2.01580599e-01 2.10056528e-01
      7.46579915e-02 1.06085315e-01 2.89005544e-02 6.95176646e-02
      4.99527790e-02 1.16577215e-01 2.42048502e-01 1.86494514e-01
      1.44222468e-01 6.05831631e-02 2.42048502e-01 1.16433918e-01
      2.42048502e-01 1.71049312e-01 2.42048502e-01 2.31297314e-01
      2.33440578e-01 1.03762254e-01 4.43249308e-02 1.27359778e-01
      3.27182151e-02 8.94426852e-02 8.70177746e-02 2.42048502e-01
      2.42048502e-01 2.42048502e-01 2.42048502e-01 1.12598486e-01
      2.42048502e-01 3.47085707e-02 3.19759287e-02 4.31526564e-02
      2.42048502e-01 1.55438989e-01 1.17179178e-01 1.78003937e-01
      8.73758942e-02 3.21499944e-01 1.58636853e-01 3.21499944e-01
      2.26225674e-01 2.04066411e-01 2.32604844e-03 2.30874494e-03
      3.23400646e-02 1.34041170e-02 2.75496513e-01 2.40352824e-02
      5.95560744e-02 2.55066808e-02 1.20300641e-02 2.52031296e-01
      3.21499944e-01 3.21499944e-01 1.74298853e-01 3.21499944e-01
      3.95900495e-02 4.60717976e-02 2.64806710e-02 1.81354150e-01
      7.78235449e-03 2.22685859e-02 6.42907768e-02 3.48644666e-02
      2.55850345e-01 6.46881247e-03 1.04410313e-02 2.43620062e-03
      4.60452726e-03 1.26942083e-01 1.00697428e-01 4.40180376e-02
      2.00685468e-02 2.06957385e-01 2.05810949e-01 3.20947975e-01
      1.64054349e-01 1.36238068e-01 3.20947975e-01 3.20947975e-01
      2.25011230e-01 4.59890403e-02 3.20947975e-01 2.51797616e-01
      3.20947975e-01 3.20947975e-01 3.20947975e-01 2.45027011e-03
      7.27958570e-04 3.31342075e-04 0. 0. 0. 6.72456925e-04
      1.42335449e-03 2.99822073e-03 1.20609086e-02 3.82801867e-03
      2.31939461e-03 0. 0. 0. 2.31624045e-03 3.95337958e-03
      1.13867270e-02 3.36611271e-01 3.36611271e-01 1.64981872e-01
      5.59374988e-02 1.78997934e-01 5.37110828e-02 1.76468983e-01
      1.76681250e-01 3.36611271e-01 3.36611271e-01 3.36611271e-01
      3.32797140e-01 1.31834522e-01 2.30430812e-01 3.68162021e-02
      1.45238489e-02 7.74595812e-02 3.36611271e-01 7.50023359e-03
      1.63066573e-03 1.12763268e-03 0. 0. 0. 7.54846900e-04
      1.11381290e-03 7.30321696e-03 1.11360038e-02 0. 0. 0. 0. 0. 0. 0.
      1.11676315e-02 4.07530844e-01 4.07530844e-01 4.07530844e-01
      2.96606213e-01 4.07530844e-01 1.70563329e-02 5.46299201e-03
      3.72802615e-02 4.07530844e-01 3.30289416e-02 8.18564147e-02
      1.25565007e-01 6.93296716e-02 2.16504455e-01 5.84029185e-04
      7.86909368e-05 2.62971280e-05 1.71230789e-02 1.33086024e-02 0. 0.
      0. 0. 0. 0. 0. 1.12462621e-02 2.54066777e-04 0. 0. 0. 0. 0. 0. 0.
      2.09460486e-04</_>
    <_>
      0. 0. 0. 0. 0. 0. 0. 0. 0. 4.24115993e-02 6.29988089e-02
      4.17472497e-02 6.46571023e-03 2.90450454e-03 1.66746625e-03
      8.59570596e-03 2.13877037e-02 3.21124680e-02 0. 4.79214679e-04
      3.61022074e-03 5.05727809e-03 2.17039846e-02 1.04540617e-04
      3.00888694e-03 3.63107160e-04 0. 3.69416147e-01 4.31263030e-01
      4.31263030e-01 4.31263030e-01 4.31263030e-01 2.36816183e-02
      1.81556240e-01 1.35970443e-01 2.31551364e-01 3.93394940e-02
      3.79070379e-02 2.89469343e-02 3.10360757e-03 9.29809548e-03
      3.67092527e-03 1.56240268e-02 2.81126834e-02 3.34488750e-02
      2.52722502e-02 1.12744560e-02 1.07994806e-02 9.29115806e-04
      9.52689163e-03 3.47078312e-03 1.37396781e-02 1.91830602e-02
      2.39527225e-02 2.77802765e-01 2.77802765e-01 2.77802765e-01
      2.37626672e-01 2.77802765e-01 1.15562834e-01 2.59315640e-01
      1.75006986e-01 2.67964453e-01 2.77802765e-01 1.93948969e-01
      2.07242638e-01 5.94425425e-02 2.77802765e-01 1.66859463e-01
      2.77802765e-01 1.65285587e-01 2.64655888e-01 2.72051524e-02
      2.78808409e-03 2.22030724e-03 3.82636121e-04 1.89403410e-03
      1.28251151e-04 2.43223691e-03 1.33549212e-03 2.79856063e-02
      2.00070217e-02 9.91521287e-04 6.44605316e-04 8.11652499e-05
      1.35529146e-04 0. 3.18830600e-03 2.02831184e-03 2.19926350e-02
      3.03610951e-01 1.15256079e-01 8.99951831e-02 3.79384123e-02
      3.03610951e-01 1.43977895e-01 3.03610951e-01 2.91303337e-01
      3.03610951e-01 3.03610951e-01 4.06007916e-02 2.73818690e-02
      9.01459251e-03 3.03610951e-01 1.84427842e-01 3.03610951e-01
      3.03610951e-01 3.03610951e-01 0. 3.47001391e-04 2.77777249e-03
      3.09298816e-03 2.36456916e-02 2.60645320e-04 3.57876928e-03
      4.09797532e-04 0. 8.02205876e-02 1.85938120e-01 3.97923082e-01
      2.84333825e-01 3.97923082e-01 7.94739723e-02 2.56219566e-01
      5.86664714e-02 4.88977470e-02 0. 1.31621200e-04 1.14584749e-03
      1.05744472e-03 2.19859127e-02 7.64064258e-04 2.39936588e-03
      2.59353314e-04 0. 7.76919201e-02 4.79268581e-02 1.17537647e-01
      6.55742735e-02 3.97923082e-01 2.75678277e-01 3.97923082e-01
      2.27135301e-01 8.87883827e-02 1.41150728e-01 1.73174396e-01
      2.72180915e-01 1.35948002e-01 2.72180915e-01 9.06746835e-02
      2.40657911e-01 8.05725753e-02 9.68547389e-02 1.32605344e-01
      7.95053691e-02 1.07846588e-01 3.28662954e-02 1.71405822e-01
      7.79741257e-02 1.84294984e-01 8.71697441e-02 1.12105109e-01
      1.45797908e-01 7.19866455e-02 1.00767575e-01 4.13622968e-02
      2.72180915e-01 1.51003122e-01 2.72180915e-01 2.72180915e-01
      1.67613611e-01 1.84164003e-01 7.40236044e-02 8.10277686e-02
      6.11892492e-02 1.09146588e-01 7.54490867e-02 2.72180915e-01
      2.66720831e-01 2.20275640e-01 1.34983853e-01 3.33360434e-02
      3.00317872e-02 1.69664752e-02 2.42911145e-01 1.01003490e-01
      2.70015150e-01 1.56196490e-01 1.62409008e-01 9.69441757e-02
      1.52825173e-02 1.93625074e-02 9.17305425e-03 2.70015150e-01
      1.64441362e-01 2.70015150e-01 1.37960270e-01 1.29250780e-01
      2.27372631e-01 7.99075067e-02 1.08677119e-01 7.24885017e-02
      2.66529351e-01 1.29368678e-01 2.03638300e-01 2.10098729e-01
      2.70015150e-01 1.41932577e-01 8.73916224e-02 1.92077994e-01
      8.15865844e-02 2.70015150e-01 1.54961199e-01 1.54471129e-01
      1.22094013e-01 1.91677466e-01 0. 0. 0. 7.80136033e-05
      1.91413313e-02 1.52367074e-03 0. 0. 0. 3.83629739e-01
      1.66649282e-01 2.40731109e-02 4.03651269e-03 4.04446900e-01
      4.04446900e-01 4.04446900e-01 4.04446900e-01 4.04446900e-01 0. 0.
      0. 0. 0. 0. 0. 0. 0. 2.73325033e-02 1.33336969e-02 1.86016597e-03
      0. 9.34487471e-05 0. 1.82124823e-02 1.87254865e-02 2.35382952e-02
      3.05350065e-01 1.69469774e-01 6.76359236e-02 3.23274471e-02
      2.79662609e-01 1.70701578e-01 3.05350065e-01 3.05350065e-01
      3.05350065e-01 3.05350065e-01 1.84598878e-01 1.44390568e-01
      1.21796459e-01 1.31498396e-01 1.34131089e-01 3.05350065e-01
      3.05350065e-01 3.05350065e-01 2.63349693e-02 1.34033877e-02
      4.61071683e-03 8.05456773e-04 4.98925569e-04 0. 9.27825272e-03
      1.63962953e-02 2.38377620e-02 2.87035089e-02 1.32749146e-02
      6.76728738e-03 1.67287129e-03 1.24873279e-03 8.10651341e-04
      8.12105741e-03 2.00443398e-02 3.11432313e-02 2.97709733e-01
      1.90338358e-01 2.16493949e-01 1.36934489e-01 2.29399651e-01
      1.56036779e-01 2.47189105e-01 2.97709733e-01 2.97709733e-01
      2.97709733e-01 2.06414774e-01 2.97709733e-01 1.62635297e-01
      2.97709733e-01 9.06204358e-02 7.40670785e-02 2.14841262e-01
      2.97709733e-01 4.26525734e-02 1.18542071e-02 4.20772284e-03
      1.00746681e-03 1.16421841e-03 8.49185686e-04 6.86687045e-03
      1.97257604e-02 4.85199429e-02 3.54369134e-02 1.15940385e-02
      8.31210520e-03 1.82266056e-03 2.67354283e-03 6.88528817e-05
      1.07190444e-03 1.02398228e-02 3.77522409e-02</_>
    <_>
      0. 0. 0. 0. 0. 0. 0. 0. 0. 1.53478300e-02 1.34274382e-02
      4.54402063e-03 0. 0. 0. 0. 0. 1.20846145e-02 1.79560084e-04
      8.85559362e-04 1.85032636e-02 2.70707887e-02 5.04173674e-02
      8.49776116e-05 0. 0. 1.79560084e-04 4.22650069e-01 4.22650069e-01
      4.22650069e-01 4.22650069e-01 4.22650069e-01 1.32593163e-03
      1.88999448e-03 6.31604402e-04 3.13697875e-01 1.87581275e-02
      1.33677302e-02 4.25334508e-03 0. 8.78038409e-04 0. 2.28510122e-03
      8.58742278e-03 1.83598194e-02 2.78932173e-02 1.50439683e-02
      4.40756232e-03 8.58503394e-04 1.85622461e-03 0. 3.14332568e-03
      1.07186325e-02 2.47715320e-02 3.04716498e-01 3.04716498e-01
      3.04716498e-01 1.32523701e-01 2.16451362e-01 6.83409860e-04
      5.85668683e-02 1.15442693e-01 3.04716498e-01 3.04716498e-01
      3.04716498e-01 3.04716498e-01 1.64959043e-01 2.70219982e-01
      1.20781243e-01 1.55276254e-01 1.76934376e-01 3.04716498e-01
      5.43167852e-02 2.43671369e-02 8.47533718e-03 1.00501813e-03
      3.19490978e-03 6.64656167e-04 8.11008364e-03 9.01606865e-03
      3.65892909e-02 4.01957072e-02 1.56896804e-02 6.42470038e-03
      8.99688966e-05 7.05787214e-03 1.41946657e-03 1.38873532e-02
      1.36847943e-02 3.02851070e-02 2.79213756e-01 2.79213756e-01
      2.33164996e-01 1.62510514e-01 2.79213756e-01 2.30002224e-01
      2.79213756e-01 1.71886057e-01 2.79213756e-01 2.79213756e-01
      1.53062463e-01 1.74013004e-01 7.36810341e-02 2.79213756e-01
      1.85481086e-01 2.79213756e-01 1.74468189e-01 2.79213756e-01
      5.18622001e-05 3.10211617e-04 9.50419623e-03 2.48225983e-02
      6.58560842e-02 7.44969957e-03 2.74608727e-03 5.55038168e-05
      5.58264073e-05 1.03947982e-01 3.36282045e-01 3.36467892e-01
      3.35819185e-01 3.36467892e-01 8.00985694e-02 6.52713254e-02
      1.33182118e-02 5.98677285e-02 1.71909360e-05 6.58024801e-05
      4.19679424e-03 1.86271034e-02 7.99177885e-02 2.56254468e-02
      1.23220067e-02 1.16740307e-03 2.76420342e-05 8.93241316e-02
      7.68507570e-02 1.73164383e-01 2.14772329e-01 3.36467892e-01
      3.36467892e-01 3.36467892e-01 2.43273839e-01 1.32792875e-01
      1.66150287e-01 2.47872740e-01 2.47872740e-01 1.40888348e-01
      2.47872740e-01 2.84732115e-02 5.89797720e-02 4.14231457e-02
      1.03361994e-01 1.84823543e-01 1.97995767e-01 2.47872740e-01
      7.22858086e-02 1.42258599e-01 6.22311309e-02 8.46752375e-02
      6.44210353e-02 1.52227268e-01 1.89295724e-01 1.59223720e-01
      2.06813470e-01 8.28858018e-02 2.47872740e-01 1.26202822e-01
      2.47872740e-01 1.91189557e-01 2.34238967e-01 1.93458468e-01
      1.67844653e-01 2.41366833e-01 3.17335576e-02 1.46491051e-01
      1.36998082e-02 9.59913582e-02 6.88876882e-02 2.21126333e-01
      2.40723327e-01 1.25052586e-01 1.91885546e-01 9.56397206e-02
      2.40723327e-01 1.39390603e-01 2.40723327e-01 9.84250158e-02
      2.16724470e-01 1.32769644e-01 6.97366968e-02 1.66799486e-01
      1.05797358e-01 2.40723327e-01 1.63214013e-01 2.40723327e-01
      8.59224349e-02 1.10454887e-01 1.83021188e-01 2.05945209e-01
      2.40723327e-01 9.32212248e-02 2.22531602e-01 4.42670174e-02
      1.23227656e-01 5.15815616e-02 1.90346375e-01 1.08701363e-01
      1.68135300e-01 2.40723327e-01 1.51290223e-01 2.40723327e-01
      9.83017683e-02 1.17741182e-01 3.05002872e-02 1.04901358e-01
      1.67928010e-05 0. 2.81887740e-04 4.53045173e-03 6.34717867e-02
      3.83970775e-02 2.19707340e-02 3.43534234e-03 2.89347918e-05
      3.86996150e-01 1.06935829e-01 1.44529743e-02 4.40828055e-02
